{"learner":{"attributes":{"scikit_learn":"{\"_estimator_type\": \"ranker\"}"},"feature_names":[],"feature_types":[],"gradient_booster":{"model":{"cats":{"enc":[],"feature_segments":[],"sorted_idx":[]},"gbtree_model_param":{"num_parallel_tree":"1","num_trees":"100"},"iteration_indptr":[0,1,2,3,4,5,6,7,8,9,10,11,12,13,14,15,16,17,18,19,20,21,22,23,24,25,26,27,28,29,30,31,32,33,34,35,36,37,38,39,40,41,42,43,44,45,46,47,48,49,50,51,52,53,54,55,56,57,58,59,60,61,62,63,64,65,66,67,68,69,70,71,72,73,74,75,76,77,78,79,80,81,82,83,84,85,86,87,88,89,90,91,92,93,94,95,96,97,98,99,100],"tree_info":[0,0,0,0,0,0,0,0,0,0,0,0,0,0,0,0,0,0,0,0,0,0,0,0,0,0,0,0,0,0,0,0,0,0,0,0,0,0,0,0,0,0,0,0,0,0,0,0,0,0,0,0,0,0,0,0,0,0,0,0,0,0,0,0,0,0,0,0,0,0,0,0,0,0,0,0,0,0,0,0,0,0,0,0,0,0,0,0,0,0,0,0,0,0,0,0,0,0,0,0],"trees":[{"base_weights":[2.3666194E-3,3.3434108E-1,-5.344273E-1,4.4534773E-1,-3.434844E-1,-6.838026E-1,3.2579643E-1,4.9569443E-1,-1.9744465E-1,-5.8079034E-1,5.3389883E-1,-3.0497937E-2,-7.8778064E-1,-1.5136582E-1,6.826816E-1,5.238142E-1,-3.998776E-1,3.236107E-1,-5.9018505E-1,-7.268965E-1,9.298906E-2,-2.923447E-1,7.352588E-1,-7.1291614E-1,2.3280285E-1,-7.5100645E-2,-8.4372306E-1,1.7138211E-1,-8.390148E-1,-5.79758E-1,7.998756E-1,2.4153483E-1,5.9962595E-1,-8.0338216E-1,4.5242524E-1,6.960517E-1,-8.827471E-2,-0E0,-9.636999E-2,-4.1216955E-2,-8.570587E-1,4.2403924E-1,-8.559827E-2,-7.984849E-2,3.8009375E-1,-5.4311235E-2,8.051128E-1,-9.5371336E-2,4.790909E-1,4.4120666E-1,-7.790347E-1,-6.084447E-1,5.240305E-1,-8.575637E-1,5.508231E-1,6.0166466E-1,-4.1532853E-1,-9.327434E-2,1.8103747E-2,-0E0,-7.809979E-2,-4.338877E-1,8.848712E-1,4.41093E-2,-3.66093E-3,7.238191E-2,3.9306667E-2,3.9873898E-2,-9.4799004E-2,-2.3463937E-2,6.821375E-2,8.845844E-2,-2.2183247E-2,-5.526337E-2,5.0933015E-2,4.758322E-2,-8.707358E-2,-9.035485E-2,3.8009375E-2,-4.338877E-2,6.415995E-2,6.131472E-2,-0E0,2.8532756E-2,9.240014E-2,7.039181E-2,-0E0,5.6360334E-2,-8.133858E-2,1.8103747E-2,-9.048505E-2,-9.420151E-2,3.631144E-2,-5.1760912E-2,8.390149E-2,5.508231E-2,-8.716603E-2,7.601875E-2,-0E0,8.650591E-2,9.744822E-3,3.631144E-2,-8.9709066E-2,-7.039181E-2,1.8103747E-2,-8.677754E-3,9.515051E-2],"categories":[],"categories_nodes":[],"categories_segments":[],"categories_sizes":[],"default_left":[0,0,0,0,0,0,0,0,0,0,0,0,0,0,0,0,0,0,0,0,0,0,0,0,0,0,0,0,0,0,0,0,0,0,0,0,0,0,0,0,0,0,0,0,0,0,0,0,0,0,0,0,0,0,0,0,0,0,0,0,0,0,0,0,0,0,0,0,0,0,0,0,0,0,0,0,0,0,0,0,0,0,0,0,0,0,0,0,0,0,0,0,0,0,0,0,0,0,0,0,0,0,0,0,0,0,0],"id":0,"left_children":[1,3,5,7,9,11,13,15,17,19,21,23,25,27,29,31,33,35,37,39,41,43,45,47,49,51,53,55,57,59,61,63,65,67,69,71,-1,73,-1,75,77,79,-1,-1,81,-1,83,-1,85,87,89,91,93,95,97,99,101,-1,-1,-1,-1,103,105,-1,-1,-1,-1,-1,-1,-1,-1,-1,-1,-1,-1,-1,-1,-1,-1,-1,-1,-1,-1,-1,-1,-1,-1,-1,-1,-1,-1,-1,-1,-1,-1,-1,-1,-1,-1,-1,-1,-1,-1,-1,-1,-1,-1],"loss_changes":[3.582125E2,9.360686E1,9.892351E1,3.465065E1,3.6818542E1,4.4455902E1,1.9571953E1,2.5151337E1,1.620749E1,1.3701553E1,6.512208E0,1.6507372E1,2.2456665E1,1.1182419E1,1.0167385E1,2.0414093E1,1.0927654E1,1.6018234E1,9.916116E0,1.013274E1,8.395003E0,3.0713227E0,3.1803665E0,7.795439E0,1.4341254E1,1.3806441E1,1.0579407E1,9.005016E0,1.7040539E0,7.176547E-1,6.721527E0,1.1398413E1,1.912555E1,4.064765E0,1.818785E0,4.8263245E0,0E0,5.470312E0,0E0,8.6608515E0,5.847702E0,3.9410899E0,0E0,0E0,3.69381E-1,0E0,1.5611668E0,0E0,5.3451395E-1,9.0087185E0,1.5768995E0,7.7289667E0,7.1327047E0,1.0781891E1,6.636696E-1,2.6270776E0,6.0503664E0,0E0,0E0,0E0,0E0,8.8564044E-1,3.7646027E0,0E0,0E0,0E0,0E0,0E0,0E0,0E0,0E0,0E0,0E0,0E0,0E0,0E0,0E0,0E0,0E0,0E0,0E0,0E0,0E0,0E0,0E0,0E0,0E0,0E0,0E0,0E0,0E0,0E0,0E0,0E0,0E0,0E0,0E0,0E0,0E0,0E0,0E0,0E0,0E0,0E0,0E0,0E0,0E0],"parents":[2147483647,0,0,1,1,2,2,3,3,4,4,5,5,6,6,7,7,8,8,9,9,10,10,11,11,12,12,13,13,14,14,15,15,16,16,17,17,18,18,19,19,20,20,21,21,22,22,23,23,24,24,25,25,26,26,27,27,28,28,29,29,30,30,31,31,32,32,33,33,34,34,35,35,37,37,39,39,40,40,41,41,44,44,46,46,48,48,49,49,50,50,51,51,52,52,53,53,54,54,55,55,56,56,61,61,62,62],"right_children":[2,4,6,8,10,12,14,16,18,20,22,24,26,28,30,32,34,36,38,40,42,44,46,48,50,52,54,56,58,60,62,64,66,68,70,72,-1,74,-1,76,78,80,-1,-1,82,-1,84,-1,86,88,90,92,94,96,98,100,102,-1,-1,-1,-1,104,106,-1,-1,-1,-1,-1,-1,-1,-1,-1,-1,-1,-1,-1,-1,-1,-1,-1,-1,-1,-1,-1,-1,-1,-1,-1,-1,-1,-1,-1,-1,-1,-1,-1,-1,-1,-1,-1,-1,-1,-1,-1,-1,-1,-1],"split_conditions":[1.0177876E-3,-1.8667694E-2,1E4,2.5138846E-2,3E5,-4.4470202E-2,-2.5398277E-2,1.17333755E-2,-2.7983624E-3,2.2691993E-2,-1.9718535E-2,-1.5462752E-2,-2.0995997E-2,-1.9248361E-3,-1.1258229E-2,-3.143639E-1,1.39733525E-2,3.3833668E-2,-1.2562671E-2,-3.0313578E-2,-7.5025535E-3,-2.3759212E-2,-3.117468E-2,1.1020108E-2,2.5242388E-2,1.1391432E-2,5.6823853E-2,-2.138032E-3,2.1466661E-2,-3.7939444E-2,-6.266524E-3,-1.4042204E-2,4.5690835E-1,-6.356205E-3,3.2106765E-2,2.0304639E-2,-8.827471E-2,2.0194173E-2,-9.636999E-2,-1.7451344E-2,2.8438097E-2,4.4241985E-3,-8.559827E-2,-7.984849E-2,-1.1919853E-2,-5.4311235E-2,1.1757159E-3,-9.5371336E-2,-2.2367958E-2,-1.2969572E-2,-2.0113744E-2,-2.937714E-3,5.932536E-3,-6.562844E-2,-2.9915873E-2,1.6195484E-2,-3.537407E-2,-9.327434E-2,1.8103747E-2,-0E0,-7.809979E-2,4.4256106E-2,-1.2484074E-2,4.41093E-2,-3.66093E-3,7.238191E-2,3.9306667E-2,3.9873898E-2,-9.4799004E-2,-2.3463937E-2,6.821375E-2,8.845844E-2,-2.2183247E-2,-5.526337E-2,5.0933015E-2,4.758322E-2,-8.707358E-2,-9.035485E-2,3.8009375E-2,-4.338877E-2,6.415995E-2,6.131472E-2,-0E0,2.8532756E-2,9.240014E-2,7.039181E-2,-0E0,5.6360334E-2,-8.133858E-2,1.8103747E-2,-9.048505E-2,-9.420151E-2,3.631144E-2,-5.1760912E-2,8.390149E-2,5.508231E-2,-8.716603E-2,7.601875E-2,-0E0,8.650591E-2,9.744822E-3,3.631144E-2,-8.9709066E-2,-7.039181E-2,1.8103747E-2,-8.677754E-3,9.515051E-2],"split_indices":[214,4035,4611,4064,4611,4035,1472,4145,1060,3612,3420,4222,3527,75,4239,4609,2713,1883,2514,2481,325,101,154,1124,1640,4305,1277,3921,157,8,4345,2763,4609,141,15,3961,0,824,0,3673,1917,242,0,0,1,0,219,0,1,444,4,863,1343,3251,1549,52,1833,0,0,0,0,3,2603,0,0,0,0,0,0,0,0,0,0,0,0,0,0,0,0,0,0,0,0,0,0,0,0,0,0,0,0,0,0,0,0,0,0,0,0,0,0,0,0,0,0,0,0],"split_type":[0,0,0,0,0,0,0,0,0,0,0,0,0,0,0,0,0,0,0,0,0,0,0,0,0,0,0,0,0,0,0,0,0,0,0,0,0,0,0,0,0,0,0,0,0,0,0,0,0,0,0,0,0,0,0,0,0,0,0,0,0,0,0,0,0,0,0,0,0,0,0,0,0,0,0,0,0,0,0,0,0,0,0,0,0,0,0,0,0,0,0,0,0,0,0,0,0,0,0,0,0,0,0,0,0,0,0],"sum_hessian":[2.0081475E3,1.2410256E3,7.671218E2,1.0666798E3,1.7434587E2,6.53797E2,1.1332482E2,9.8941284E2,7.726692E1,1.374955E2,3.6850376E1,8.9946625E1,5.638504E2,4.8737595E1,6.458722E1,9.5969476E2,2.9718046E1,3.3284214E1,4.3982708E1,1.1292857E2,2.456692E1,7.1323314E0,2.9718046E1,2.456692E1,6.53797E1,4.1209026E1,5.2264136E2,3.3680454E1,1.5057143E1,5.1511283E0,5.9436092E1,2.0406392E2,7.5563086E2,2.0208271E1,9.509775E0,2.575564E1,7.5285716E0,1.7434587E1,2.6548122E1,1.8227068E1,9.470151E1,1.862331E1,5.943609E0,3.9624062E0,3.169925E0,1.1887219E0,2.8529325E1,2.0604513E1,3.9624062E0,5.4681206E1,1.0698497E1,2.1793234E1,1.941579E1,5.178865E2,4.7548876E0,1.941579E1,1.4264663E1,1.3868422E1,1.1887219E0,1.5849625E0,3.5661657E0,3.5661657E0,5.5869926E1,1.18475945E2,8.5587975E1,4.7033762E2,2.8529324E2,1.9812031E0,1.8227068E1,2.3774438E0,7.1323314E0,2.1396994E1,4.358647E0,8.3210535E0,9.113534E0,1.1490978E1,6.7360907E0,9.1531586E1,3.169925E0,3.5661657E0,1.5057143E1,1.5849625E0,1.5849625E0,5.943609E0,2.2585716E1,2.3774438E0,1.5849625E0,5.032256E1,4.358647E0,1.1887219E0,9.509775E0,1.6245865E1,5.5473685E0,4.358647E0,1.5057143E1,4.7548876E0,5.131316E2,3.169925E0,1.5849625E0,1.228346E1,7.1323314E0,5.5473685E0,8.717294E0,2.3774438E0,1.1887219E0,3.5661657E0,5.230376E1],"tree_param":{"num_deleted":"0","num_feature":"4615","num_nodes":"107","size_leaf_vector":"1"}},{"base_weights":[-1.0409673E-3,2.0154195E-1,-6.1919534E-1,3.412326E-1,-2.3446943E-1,-7.072106E-1,3.558568E-1,3.7273368E-1,-6.517491E-1,-4.345153E-1,3.24703E-1,-7.884318E-1,-9.725244E-2,-7.11001E-1,5.4783446E-1,5.483319E-1,2.5681272E-1,8.932574E-2,-8.331563E-1,-6.758708E-1,-4.170137E-2,-9.424052E-2,4.4022334E-1,-8.265034E-1,1.2074703E-1,2.9604208E-1,-7.6653844E-1,6.0026117E-2,-8.9116745E-2,-3.7558815E-1,7.055503E-1,5.762629E-1,-4.5628864E-1,-7.4488476E-2,3.4832445E-1,7.346441E-2,-9.0888554E-1,3.2641792E-1,-7.493735E-1,-4.568997E-1,5.13844E-1,5.523564E-1,-5.1488173E-1,-8.405467E-1,8.865093E-2,-8.787977E-2,6.9508976E-1,5.268113E-1,-9.012246E-2,-9.1968656E-2,3.5501757E-1,-8.491195E-2,5.8968823E-2,9.397855E-2,2.995328E-1,6.133605E-2,-1.2874882E-2,-9.3829945E-2,3.493625E-2,2.6164774E-2,-4.3436453E-2,8.652301E-3,4.6652433E-2,5.943602E-2,-9.474056E-2,-8.222478E-2,6.571909E-2,-8.6189725E-2,-8.691325E-3,-6.385782E-2,4.4538416E-2,-9.1448836E-2,7.498911E-2,6.597669E-2,-1.8364599E-2,-9.1560505E-2,4.8393987E-2,7.208314E-2,-8.546998E-2,8.609474E-2,-6.875471E-2,-8.313575E-2,6.803369E-2,6.3579895E-2,1.4061756E-2,-4.0582106E-3,1.6860943E-2,5.4469923E-3,8.869847E-2],"categories":[],"categories_nodes":[],"categories_segments":[],"categories_sizes":[],"default_left":[0,0,0,0,0,0,0,0,0,0,0,0,0,0,0,0,0,0,0,0,0,0,0,0,0,0,0,0,0,0,0,0,0,0,0,0,0,0,0,0,0,0,0,0,0,0,0,0,0,0,0,0,0,0,0,0,0,0,0,0,0,0,0,0,0,0,0,0,0,0,0,0,0,0,0,0,0,0,0,0,0,0,0,0,0,0,0,0,0],"id":1,"left_children":[1,3,5,7,9,11,13,15,17,19,21,23,25,27,29,31,33,-1,35,37,39,-1,41,43,45,47,49,-1,-1,51,53,55,57,59,61,-1,63,65,67,69,71,73,75,77,-1,-1,79,81,-1,-1,83,-1,85,-1,87,-1,-1,-1,-1,-1,-1,-1,-1,-1,-1,-1,-1,-1,-1,-1,-1,-1,-1,-1,-1,-1,-1,-1,-1,-1,-1,-1,-1,-1,-1,-1,-1,-1,-1],"loss_changes":[7.3619666E2,2.6976224E2,1.2478302E2,1.0515054E2,1.20387375E2,6.587689E1,2.5132114E1,6.604172E1,2.9749393E1,7.5074234E1,4.195883E1,4.076062E1,4.1706306E1,4.9901924E0,1.5258078E1,3.6516327E1,5.9459442E1,0E0,1.1725029E1,3.6388077E1,7.0020966E1,0E0,2.8214054E1,2.7871521E1,2.8215904E1,2.8097488E1,1.0392597E1,0E0,0E0,3.2746887E0,8.113941E0,3.296756E1,1.4116368E1,5.1538223E1,4.7498077E1,0E0,5.7332764E0,1.3541019E1,3.402008E1,2.8754036E1,4.447326E1,1.8609299E1,1.1617193E1,2.5343079E1,0E0,0E0,7.7230415E0,1.8174871E1,0E0,0E0,3.7789E-1,0E0,1.0623936E-1,0E0,4.8124013E0,0E0,0E0,0E0,0E0,0E0,0E0,0E0,0E0,0E0,0E0,0E0,0E0,0E0,0E0,0E0,0E0,0E0,0E0,0E0,0E0,0E0,0E0,0E0,0E0,0E0,0E0,0E0,0E0,0E0,0E0,0E0,0E0,0E0,0E0],"parents":[2147483647,0,0,1,1,2,2,3,3,4,4,5,5,6,6,7,7,8,8,9,9,10,10,11,11,12,12,13,13,14,14,15,15,16,16,18,18,19,19,20,20,22,22,23,23,24,24,25,25,26,26,29,29,30,30,31,31,32,32,33,33,34,34,36,36,37,37,38,38,39,39,40,40,41,41,42,42,43,43,46,46,47,47,50,50,52,52,54,54],"right_children":[2,4,6,8,10,12,14,16,18,20,22,24,26,28,30,32,34,-1,36,38,40,-1,42,44,46,48,50,-1,-1,52,54,56,58,60,62,-1,64,66,68,70,72,74,76,78,-1,-1,80,82,-1,-1,84,-1,86,-1,88,-1,-1,-1,-1,-1,-1,-1,-1,-1,-1,-1,-1,-1,-1,-1,-1,-1,-1,-1,-1,-1,-1,-1,-1,-1,-1,-1,-1,-1,-1,-1,-1,-1,-1],"split_conditions":[1.3053661E-2,-1.2680741E-2,4.8E5,4.082744E-2,1.13E4,5.532832E-3,-1.0655461E-2,-2.1663515E-2,-3.628098E-3,2.2500647E-2,-3.66437E-2,3.3938963E-2,-2.678442E-2,-4.4856206E-2,-1.6757326E-2,2.2913816E0,1.28483595E-2,8.932574E-2,-3.638358E-2,-2.8478641E-2,6.6593586E-4,-9.424052E-2,6.5144436E-3,4.0777244E-2,3.2148036E-4,8.4518045E-3,6.0671642E-2,6.0026117E-2,-8.9116745E-2,2.380403E-2,-8.552065E-3,3.5370618E-2,-1.2951733E-2,-1.8727693E-3,-6.694749E-3,7.346441E-2,-3.6341812E-2,3.5548283E-4,1E0,2.7601473E-2,-2.2966566E-2,2.9808378E-2,2.6785191E-2,-3.9751742E-2,8.865093E-2,-8.787977E-2,-8.18164E-3,-1.9172695E-2,-9.012246E-2,-9.1968656E-2,-4.217039E-2,-8.491195E-2,-4.4561245E-2,9.397855E-2,3.4074496E-2,6.133605E-2,-1.2874882E-2,-9.3829945E-2,3.493625E-2,2.6164774E-2,-4.3436453E-2,8.652301E-3,4.6652433E-2,5.943602E-2,-9.474056E-2,-8.222478E-2,6.571909E-2,-8.6189725E-2,-8.691325E-3,-6.385782E-2,4.4538416E-2,-9.1448836E-2,7.498911E-2,6.597669E-2,-1.8364599E-2,-9.1560505E-2,4.8393987E-2,7.208314E-2,-8.546998E-2,8.609474E-2,-6.875471E-2,-8.313575E-2,6.803369E-2,6.3579895E-2,1.4061756E-2,-4.0582106E-3,1.6860943E-2,5.4469923E-3,8.869847E-2],"split_indices":[214,3600,4611,116,4611,4480,1922,2855,992,1451,1194,4606,3216,8,2930,4609,30,0,1666,3119,2349,0,577,496,2810,2274,1848,0,0,19,4242,2565,771,611,1645,0,928,223,4614,1942,407,4111,43,2425,0,0,13,4406,0,0,1,0,1,0,151,0,0,0,0,0,0,0,0,0,0,0,0,0,0,0,0,0,0,0,0,0,0,0,0,0,0,0,0,0,0,0,0,0,0],"split_type":[0,0,0,0,0,0,0,0,0,0,0,0,0,0,0,0,0,0,0,0,0,0,0,0,0,0,0,0,0,0,0,0,0,0,0,0,0,0,0,0,0,0,0,0,0,0,0,0,0,0,0,0,0,0,0,0,0,0,0,0,0,0,0,0,0,0,0,0,0,0,0,0,0,0,0,0,0,0,0,0,0,0,0,0,0,0,0,0,0],"sum_hessian":[5.876876E3,4.426792E3,1.4500841E3,3.352822E3,1.0739698E3,1.3302782E3,1.198059E2,3.250334E3,1.02488144E2,7.9115454E2,2.8281534E2,1.1736976E3,1.5658054E2,1.7858597E1,1.019473E2,1.2909937E3,1.9593403E3,1.035687E1,9.213127E1,4.8960654E2,3.0154803E2,2.303152E1,2.597838E2,1.126612E3,4.708564E1,9.897641E1,5.760413E1,1.8756688E0,1.5982927E1,1.4670493E1,8.727681E1,1.2564866E3,3.4507103E1,4.2411108E2,1.5352292E3,3.8442376E0,8.828703E1,3.3216953E1,4.563896E2,1.7267406E2,1.2887396E2,2.328661E2,2.6917713E1,1.1179563E3,8.655719E0,1.6989042E1,3.0096598E1,8.3451416E1,1.5524996E1,5.08417E1,6.7624273E0,6.563902E0,8.106591E0,5.4513084E1,3.2763725E1,1.1937991E3,6.26875E1,2.1487036E1,1.3020065E1,2.1942955E2,2.0468153E2,4.780736E2,1.0571556E3,1.845272E0,8.6441765E1,7.094444E0,2.6122509E1,3.898668E2,6.652278E1,1.4397614E2,2.8697922E1,1.7869656E1,1.1100432E2,2.0330049E2,2.9565607E1,1.9269985E1,7.647728E0,9.594108E0,1.1083622E3,2.7209883E1,2.8867142E0,8.026816E0,7.54246E1,2.0769472E0,4.68548E0,4.5789137E0,3.527677E0,2.3890306E1,8.873418E0],"tree_param":{"num_deleted":"0","num_feature":"4615","num_nodes":"89","size_leaf_vector":"1"}},{"base_weights":[5.439493E-3,-3.93768E-1,2.5307488E-1,-5.2634835E-1,3.699417E-1,-1.0631928E-1,3.5217664E-1,-6.612988E-1,-6.2115222E-2,5.1330537E-1,-4.6915114E-1,4.4887166E-2,-6.434791E-1,-1.9778934E-1,4.1869348E-1,-7.689147E-1,-2.9998815E-1,-5.7566136E-1,2.3205955E-1,5.8806515E-1,-8.9584224E-2,-8.893404E-2,3.2912442E-1,-1.155654E-1,4.061835E-1,-8.204326E-1,5.254396E-1,-5.2344966E-1,4.1841543E-1,5.23378E-1,1.5604702E-1,-8.1586474E-1,-1.1169917E-1,6.352993E-1,-5.0034076E-1,-8.998717E-2,-8.6180404E-2,3.7328413E-1,-7.9086906E-1,-8.2619734E-2,6.442157E-1,7.658484E-2,-7.291919E-2,-3.612436E-1,1.357702E-1,6.2657714E-1,-1.0975645E-1,-9.173309E-2,4.1870698E-1,-3.0542228E-1,8.626961E-2,-1.2921223E-1,-8.995632E-1,-6.16609E-1,7.184524E-1,6.461064E-1,3.0082154E-1,2.501484E-1,-4.1510603E-1,5.0426453E-2,-8.325597E-2,-5.2366998E-2,6.256847E-2,-4.29613E-2,8.2079165E-2,-6.573863E-2,4.4040613E-2,6.550338E-2,-4.9599763E-2,-3.1928625E-2,6.0765624E-2,-2.3020467E-2,-8.708968E-2,2.309806E-3,7.331641E-2,-2.2101311E-2,1.1844082E-2,-4.8609506E-2,5.7363357E-2,-2.8949527E-2,4.5059238E-2,7.4049205E-2,-8.661627E-2,-3.4537088E-2,6.93835E-2,-6.2128186E-2,8.241098E-2,1.1309508E-2,-7.033055E-2,4.592938E-2,-6.464636E-2,-9.3095094E-2,5.3055603E-2,-7.660907E-2,6.0417306E-2,-7.664833E-2,8.110518E-2,6.793924E-2,-7.587887E-2,1.1213849E-2,4.728758E-2,3.308491E-2,-5.064271E-2,-8.030279E-2,-7.42456E-4],"categories":[],"categories_nodes":[],"categories_segments":[],"categories_sizes":[],"default_left":[0,0,0,0,0,0,0,0,0,0,0,0,0,0,0,0,0,0,0,0,0,0,0,0,0,0,0,0,0,0,0,0,0,0,0,0,0,0,0,0,0,0,0,0,0,0,0,0,0,0,0,0,0,0,0,0,0,0,0,0,0,0,0,0,0,0,0,0,0,0,0,0,0,0,0,0,0,0,0,0,0,0,0,0,0,0,0,0,0,0,0,0,0,0,0,0,0,0,0,0,0,0,0,0,0],"id":2,"left_children":[1,3,5,7,9,11,13,15,17,19,21,23,25,27,29,31,33,35,37,39,-1,-1,41,43,45,47,49,51,53,55,57,59,61,63,65,-1,67,69,71,-1,73,-1,75,77,79,81,83,-1,85,87,-1,89,91,93,95,97,99,101,103,-1,-1,-1,-1,-1,-1,-1,-1,-1,-1,-1,-1,-1,-1,-1,-1,-1,-1,-1,-1,-1,-1,-1,-1,-1,-1,-1,-1,-1,-1,-1,-1,-1,-1,-1,-1,-1,-1,-1,-1,-1,-1,-1,-1,-1,-1],"loss_changes":[5.0380594E2,1.977435E2,1.1205917E2,1.0413434E2,3.502881E1,5.530787E1,9.028015E1,4.9859497E1,5.6879135E1,2.6596779E1,1.4622756E1,3.0889053E1,3.1367481E1,5.374125E1,6.0404846E1,3.0516907E1,5.6024834E1,2.1677738E1,3.4898304E1,1.9241821E1,0E0,0E0,2.7707953E0,2.2845816E1,1.8698421E1,1.602803E1,5.9445434E0,2.5823273E1,2.9253796E1,4.2757965E1,3.3876373E1,2.0820862E1,2.0771149E1,1.0799738E1,3.6544147E1,0E0,1.7253E1,3.446793E1,1.1176796E0,0E0,1.253347E1,0E0,2.802104E-1,2.2102186E1,2.4660723E1,2.0187447E1,9.6854515E0,0E0,4.7855177E0,1.1772481E0,0E0,2.6652048E1,4.505104E0,4.365834E0,1.0575142E1,4.7873688E1,1.8153137E1,3.3144592E1,1.41103735E1,0E0,0E0,0E0,0E0,0E0,0E0,0E0,0E0,0E0,0E0,0E0,0E0,0E0,0E0,0E0,0E0,0E0,0E0,0E0,0E0,0E0,0E0,0E0,0E0,0E0,0E0,0E0,0E0,0E0,0E0,0E0,0E0,0E0,0E0,0E0,0E0,0E0,0E0,0E0,0E0,0E0,0E0,0E0,0E0,0E0,0E0],"parents":[2147483647,0,0,1,1,2,2,3,3,4,4,5,5,6,6,7,7,8,8,9,9,10,10,11,11,12,12,13,13,14,14,15,15,16,16,17,17,18,18,19,19,22,22,23,23,24,24,25,25,26,26,27,27,28,28,29,29,30,30,31,31,32,32,33,33,34,34,36,36,37,37,38,38,40,40,42,42,43,43,44,44,45,45,46,46,48,48,49,49,51,51,52,52,53,53,54,54,55,55,56,56,57,57,58,58],"right_children":[2,4,6,8,10,12,14,16,18,20,22,24,26,28,30,32,34,36,38,40,-1,-1,42,44,46,48,50,52,54,56,58,60,62,64,66,-1,68,70,72,-1,74,-1,76,78,80,82,84,-1,86,88,-1,90,92,94,96,98,100,102,104,-1,-1,-1,-1,-1,-1,-1,-1,-1,-1,-1,-1,-1,-1,-1,-1,-1,-1,-1,-1,-1,-1,-1,-1,-1,-1,-1,-1,-1,-1,-1,-1,-1,-1,-1,-1,-1,-1,-1,-1,-1,-1,-1,-1,-1,-1],"split_conditions":[-3.7217645E-3,1.45E5,-3.143639E-1,1E0,8.218541E-3,-1.0359347E-3,-2.7620818E-2,-6.633715E-3,-2.482024E-2,3.4158688E0,1.5726002E-2,1.0603679E-2,6.3879475E-2,-5.6095202E-3,-4.7490702E-4,4.4417366E-2,-2.2733242E-3,1.8348346E-2,2.5852988E-2,-9.35294E-4,-8.9584224E-2,-8.893404E-2,-2.1572076E-2,3.8516857E-2,4.717314E-3,5.702871E-3,-1.497633E-3,7.086258E-4,-2.375165E-2,4.5690835E-1,6.1989035E-3,5.465634E-2,-2.8381681E-2,-1.2946224E-3,4.4257008E-2,-8.998717E-2,-1.1429919E-2,-1.1935109E-2,-4.7988195E-2,-8.2619734E-2,-7.915364E-3,7.658484E-2,2.6877297E-2,5.2721977E-2,-2.8527228E-2,1.2561045E-2,2.0497138E-2,-9.173309E-2,-1.2311965E-2,-4.0005762E-2,8.626961E-2,-1.621641E-2,3.064325E-2,5.2859172E-2,-1.9109111E-2,4.0777627E-2,-2.2151113E-2,5.9197642E-2,-2.8478184E-3,5.0426453E-2,-8.325597E-2,-5.2366998E-2,6.256847E-2,-4.29613E-2,8.2079165E-2,-6.573863E-2,4.4040613E-2,6.550338E-2,-4.9599763E-2,-3.1928625E-2,6.0765624E-2,-2.3020467E-2,-8.708968E-2,2.309806E-3,7.331641E-2,-2.2101311E-2,1.1844082E-2,-4.8609506E-2,5.7363357E-2,-2.8949527E-2,4.5059238E-2,7.4049205E-2,-8.661627E-2,-3.4537088E-2,6.93835E-2,-6.2128186E-2,8.241098E-2,1.1309508E-2,-7.033055E-2,4.592938E-2,-6.464636E-2,-9.3095094E-2,5.3055603E-2,-7.660907E-2,6.0417306E-2,-7.664833E-2,8.110518E-2,6.793924E-2,-7.587887E-2,1.1213849E-2,4.728758E-2,3.308491E-2,-5.064271E-2,-8.030279E-2,-7.42456E-4],"split_indices":[1180,4611,4609,4614,1196,4250,2351,4406,3072,4609,4266,993,1848,573,1576,4311,1441,3726,272,4060,0,0,4,2086,301,3811,81,1155,723,4609,2236,2683,3209,1858,7,0,3527,4480,6,0,2636,0,2,77,2487,800,1931,0,5,0,0,2745,21,49,2969,3266,660,4541,1371,0,0,0,0,0,0,0,0,0,0,0,0,0,0,0,0,0,0,0,0,0,0,0,0,0,0,0,0,0,0,0,0,0,0,0,0,0,0,0,0,0,0,0,0,0,0],"split_type":[0,0,0,0,0,0,0,0,0,0,0,0,0,0,0,0,0,0,0,0,0,0,0,0,0,0,0,0,0,0,0,0,0,0,0,0,0,0,0,0,0,0,0,0,0,0,0,0,0,0,0,0,0,0,0,0,0,0,0,0,0,0,0,0,0,0,0,0,0,0,0,0,0,0,0,0,0,0,0,0,0,0,0,0,0,0,0,0,0,0,0,0,0,0,0,0,0,0,0,0,0,0,0,0,0],"sum_hessian":[5.0942554E3,1.9500436E3,3.144212E3,1.6618556E3,2.8818802E2,6.7959094E2,2.464621E3,1.287237E3,3.7461844E2,2.4646617E2,4.1721844E1,5.310272E2,1.4856372E2,2.6571304E2,2.198908E3,9.909545E2,2.9628256E2,1.3608885E2,2.385296E2,2.3460245E2,1.1863733E1,2.725927E1,1.4462571E1,3.681923E2,1.6283493E2,1.2928969E2,1.9274027E1,1.739383E2,9.177476E1,1.5715382E3,6.2736975E2,9.246576E2,6.629692E1,5.1887947E1,2.443946E2,8.136072E1,5.4728123E1,2.1015137E2,2.8378223E1,8.435053E0,2.2616739E2,6.4985576E0,7.964014E0,1.8597054E2,1.8222176E2,1.139462E2,4.888874E1,1.20153625E2,9.13607E0,5.592005E0,1.3682022E1,8.5579E1,8.835928E1,2.0388014E1,7.138675E1,1.01172235E3,5.5981586E2,5.391098E2,8.825998E1,1.1182878E1,9.1347473E2,4.271962E1,2.3577301E1,7.5021267E0,4.438582E1,2.0969066E2,3.470395E1,1.927255E1,3.5455574E1,5.304396E1,1.571074E2,4.0288906E0,2.4349333E1,2.8489264E1,1.9767813E2,4.4021897E0,3.561824E0,1.64484E2,2.1486551E1,7.754862E1,1.04673134E2,1.063354E2,7.610795E0,3.8245354E1,1.0643388E1,2.413124E0,6.7229466E0,3.0741687E0,2.517836E0,4.008458E1,4.5494427E1,8.68032E1,1.5560889E0,1.8495718E1,1.8922956E0,3.76314E0,6.7623604E1,9.8881104E2,2.2911312E1,2.677929E2,2.9202295E2,4.8765625E2,5.145353E1,4.472909E1,4.353089E1],"tree_param":{"num_deleted":"0","num_feature":"4615","num_nodes":"105","size_leaf_vector":"1"}},{"base_weights":[-8.117314E-3,2.0362364E-1,-3.5604665E-1,-1.1230395E-1,3.2963797E-1,-5.27066E-1,2.4274348E-1,-5.797004E-1,5.2578233E-2,-1.6529504E-2,4.2076638E-1,-7.1676636E-1,-1.8545711E-1,3.302226E-1,-7.318262E-1,-7.892842E-1,1.1381645E-1,2.407881E-1,-2.9153234E-1,8.8110544E-2,-4.986444E-1,5.402303E-1,2.3325619E-1,7.887561E-2,-7.374146E-1,-3.9545563E-1,3.6068407E-1,4.8557264E-1,-2.1194248E-1,-6.951338E-2,-8.9034304E-2,6.8035476E-2,-8.250547E-1,-4.882982E-1,6.0871947E-1,4.0949538E-1,-2.0950744E-1,-4.214527E-1,6.473874E-1,2.2636667E-1,-3.744589E-1,-6.970947E-1,3.6089924E-1,5.8839387E-1,-2.9005247E-1,-2.2726616E-1,3.3059835E-1,-7.6706207E-1,1.10530265E-1,6.475334E-2,-5.92479E-1,5.391266E-1,-4.7891206E-1,5.60244E-1,-5.0122637E-1,-5.45885E-1,3.737671E-1,-2.2113537E-2,1.7687894E-2,-8.6252965E-2,3.7942051E-3,-8.2250684E-2,2.5179729E-2,-6.2221527E-2,7.5597934E-2,6.247964E-2,2.0106926E-3,-7.201823E-2,1.4741062E-2,3.417132E-2,-5.442005E-2,-6.304041E-2,8.149035E-2,-4.0286656E-2,3.2158747E-2,-7.342868E-2,4.581175E-3,5.3413387E-2,-8.3209075E-2,6.683407E-2,1.7536255E-2,6.465533E-2,-5.3498577E-3,-7.42546E-2,8.758493E-2,4.10684E-2,-5.015678E-2,-4.7532558E-3,4.5285683E-2,2.8400583E-2,-7.837889E-2,-7.936317E-2,6.9582336E-2,-3.6006354E-2,6.6072054E-2,6.415047E-2,-6.793212E-2,-7.4805744E-2,6.2052835E-2,-6.7206055E-2,4.0506393E-2,-4.8265517E-2,6.146556E-2,6.2150028E-2,-7.3098764E-2,2.1625554E-2,-7.141984E-2,8.489655E-2,-3.5488382E-2],"categories":[],"categories_nodes":[],"categories_segments":[],"categories_sizes":[],"default_left":[0,0,0,0,0,0,0,0,0,0,0,0,0,0,0,0,0,0,0,0,0,0,0,0,0,0,0,0,0,0,0,0,0,0,0,0,0,0,0,0,0,0,0,0,0,0,0,0,0,0,0,0,0,0,0,0,0,0,0,0,0,0,0,0,0,0,0,0,0,0,0,0,0,0,0,0,0,0,0,0,0,0,0,0,0,0,0,0,0,0,0,0,0,0,0,0,0,0,0,0,0,0,0,0,0,0,0,0,0],"id":3,"left_children":[1,3,5,7,9,11,13,15,17,19,21,23,25,27,29,31,33,35,37,39,41,43,45,-1,47,49,51,53,55,57,-1,-1,59,61,63,65,67,69,71,73,75,77,79,81,83,85,87,89,91,93,95,97,99,101,103,105,107,-1,-1,-1,-1,-1,-1,-1,-1,-1,-1,-1,-1,-1,-1,-1,-1,-1,-1,-1,-1,-1,-1,-1,-1,-1,-1,-1,-1,-1,-1,-1,-1,-1,-1,-1,-1,-1,-1,-1,-1,-1,-1,-1,-1,-1,-1,-1,-1,-1,-1,-1,-1],"loss_changes":[3.2596707E2,1.09545525E2,1.7155054E2,6.0532116E1,6.204515E1,8.4267E1,3.200502E1,2.9858833E1,3.771551E1,2.07675E1,3.4747986E1,2.6602081E1,5.3629227E1,2.8956165E1,3.1926174E0,8.836067E0,1.4721163E1,2.8672184E1,2.5397501E1,2.1725058E1,1.2773359E1,3.816873E1,2.731385E1,0E0,2.0855774E1,3.0623756E1,1.974124E1,1.9923817E1,1.5263456E1,3.0328128E-1,0E0,0E0,5.016968E0,5.745627E0,5.3668766E0,2.2964718E1,1.8919872E1,1.7191654E1,5.95702E0,1.5775853E1,1.1865634E1,1.0413822E1,7.0581114E-1,3.3575073E1,2.848865E1,1.8863033E1,2.3229134E1,1.4260071E1,1.5785977E1,2.606756E1,2.5757828E1,1.1750959E1,4.2544756E0,1.438652E1,5.4279737E0,6.4968157E0,1.018729E1,0E0,0E0,0E0,0E0,0E0,0E0,0E0,0E0,0E0,0E0,0E0,0E0,0E0,0E0,0E0,0E0,0E0,0E0,0E0,0E0,0E0,0E0,0E0,0E0,0E0,0E0,0E0,0E0,0E0,0E0,0E0,0E0,0E0,0E0,0E0,0E0,0E0,0E0,0E0,0E0,0E0,0E0,0E0,0E0,0E0,0E0,0E0,0E0,0E0,0E0,0E0,0E0],"parents":[2147483647,0,0,1,1,2,2,3,3,4,4,5,5,6,6,7,7,8,8,9,9,10,10,11,11,12,12,13,13,14,14,15,15,16,16,17,17,18,18,19,19,20,20,21,21,22,22,24,24,25,25,26,26,27,27,28,28,29,29,32,32,33,33,34,34,35,35,36,36,37,37,38,38,39,39,40,40,41,41,42,42,43,43,44,44,45,45,46,46,47,47,48,48,49,49,50,50,51,51,52,52,53,53,54,54,55,55,56,56],"right_children":[2,4,6,8,10,12,14,16,18,20,22,24,26,28,30,32,34,36,38,40,42,44,46,-1,48,50,52,54,56,58,-1,-1,60,62,64,66,68,70,72,74,76,78,80,82,84,86,88,90,92,94,96,98,100,102,104,106,108,-1,-1,-1,-1,-1,-1,-1,-1,-1,-1,-1,-1,-1,-1,-1,-1,-1,-1,-1,-1,-1,-1,-1,-1,-1,-1,-1,-1,-1,-1,-1,-1,-1,-1,-1,-1,-1,-1,-1,-1,-1,-1,-1,-1,-1,-1,-1,-1,-1,-1,-1,-1],"split_conditions":[-1.763639E-2,6.5457965E-3,1.13E4,2.5963565E-2,-3.143639E-1,1.879487E-2,3.699552E-3,2.6036752E-2,1.3689932E-2,1.748796E-2,3.351573E-1,-6.315822E-2,2.1988764E-2,-9.729776E-3,-2.2197912E-2,-3.3522263E-2,1.184917E-2,4.3291626E-3,1.6916161E-2,1.1974564E-3,3.01855E-2,-1.2188685E-2,-2.0585869E-2,7.887561E-2,3.860452E-2,-1.2939727E-2,2.0001216E-2,3.771289E-2,-2.6017584E-2,-3.3836342E-2,-8.9034304E-2,6.8035476E-2,3.275531E-2,1.7675024E-2,1.4729836E-2,-1.2950471E-2,-2.2418214E-2,-8.435752E-3,-3.2382682E-2,-2.2888668E-2,2.7351879E-2,-9.891791E-3,1.2852599E-2,1.9936414E-2,1.605702E-2,1.5712772E-3,-3.2333154E-2,-4.3737926E-2,-6.279562E-3,1.9025505E-2,-3.1142887E-2,3.6374177E-4,-1.2682348E-2,5.41906E-3,-4.9818058E-2,-6.2011264E-2,-1.8420223E-4,-2.2113537E-2,1.7687894E-2,-8.6252965E-2,3.7942051E-3,-8.2250684E-2,2.5179729E-2,-6.2221527E-2,7.5597934E-2,6.247964E-2,2.0106926E-3,-7.201823E-2,1.4741062E-2,3.417132E-2,-5.442005E-2,-6.304041E-2,8.149035E-2,-4.0286656E-2,3.2158747E-2,-7.342868E-2,4.581175E-3,5.3413387E-2,-8.3209075E-2,6.683407E-2,1.7536255E-2,6.465533E-2,-5.3498577E-3,-7.42546E-2,8.758493E-2,4.10684E-2,-5.015678E-2,-4.7532558E-3,4.5285683E-2,2.8400583E-2,-7.837889E-2,-7.936317E-2,6.9582336E-2,-3.6006354E-2,6.6072054E-2,6.415047E-2,-6.793212E-2,-7.4805744E-2,6.2052835E-2,-6.7206055E-2,4.0506393E-2,-4.8265517E-2,6.146556E-2,6.2150028E-2,-7.3098764E-2,2.1625554E-2,-7.141984E-2,8.489655E-2,-3.5488382E-2],"split_indices":[3600,304,4611,3274,4609,1451,1136,4252,2617,3266,4609,2788,4252,2871,135,749,4304,2609,2675,700,3458,4338,2359,0,4510,4329,473,2737,4259,0,0,0,2483,665,419,598,2291,1350,150,82,952,1296,39,737,2378,3270,1226,1426,1131,3876,3527,3579,103,249,1,2357,2786,0,0,0,0,0,0,0,0,0,0,0,0,0,0,0,0,0,0,0,0,0,0,0,0,0,0,0,0,0,0,0,0,0,0,0,0,0,0,0,0,0,0,0,0,0,0,0,0,0,0,0,0],"split_type":[0,0,0,0,0,0,0,0,0,0,0,0,0,0,0,0,0,0,0,0,0,0,0,0,0,0,0,0,0,0,0,0,0,0,0,0,0,0,0,0,0,0,0,0,0,0,0,0,0,0,0,0,0,0,0,0,0,0,0,0,0,0,0,0,0,0,0,0,0,0,0,0,0,0,0,0,0,0,0,0,0,0,0,0,0,0,0,0,0,0,0,0,0,0,0,0,0,0,0,0,0,0,0,0,0,0,0,0,0],"sum_hessian":[4.4226543E3,2.7496824E3,1.6729722E3,7.840693E2,1.9656132E3,1.3014011E3,3.7157095E2,2.0380923E2,5.8026E2,4.0978625E2,1.5558269E3,8.360385E2,4.6536267E2,3.41572E2,2.999896E1,1.564049E2,4.740433E1,3.752945E2,2.0496553E2,3.3737775E2,7.24085E1,9.4920294E2,6.066239E2,1.0807824E1,8.2523065E2,3.3631934E2,1.2904333E2,2.655785E2,7.5993515E1,6.071139E0,2.3927822E1,3.2882075E0,1.531167E2,2.1391771E1,2.601256E1,2.7307507E2,1.0221943E2,1.8053557E2,2.4429966E1,2.6013678E2,7.7240944E1,5.8980225E1,1.3428279E1,8.9743524E2,5.176771E1,1.0561734E2,5.010066E2,7.974443E2,2.778639E1,1.0102218E2,2.3529716E2,1.0671967E2,2.2323654E1,2.4729765E2,1.8280827E1,4.844218E1,2.7551336E1,3.8218198E0,2.249319E0,1.4674496E2,6.3717346E0,1.4660227E1,6.7315445E0,2.434817E0,2.3577742E1,1.7545679E2,9.761828E1,4.163323E1,6.05862E1,2.4766945E1,1.5576862E2,2.511247E0,2.191872E1,3.3767212E1,2.2636958E2,4.121029E1,3.6030655E1,5.535665E0,5.344456E1,4.07449E0,9.353788E0,8.228708E2,7.456444E1,3.7555363E1,1.4212349E1,3.1608185E1,7.4009155E1,1.2255859E2,3.78448E2,1.2241523E1,7.8520276E2,1.0779005E1,1.7007385E1,5.921116E1,4.181102E1,1.5050481E1,2.2024669E2,5.860442E0,1.0085923E2,1.851735E1,3.806306E0,1.1872316E1,2.3542534E2,2.815912E0,1.5464914E1,8.711365E0,3.9730816E1,1.6575989E1,1.0975348E1],"tree_param":{"num_deleted":"0","num_feature":"4615","num_nodes":"109","size_leaf_vector":"1"}},{"base_weights":[-6.2621012E-3,1.4528273E-1,-4.8446673E-1,2.3029244E-1,-3.3603582E-1,-5.7491106E-1,2.3309994E-1,-7.708795E-2,3.1443354E-1,7.619393E-2,-6.066879E-1,-2.5978956E-1,-7.089671E-1,-5.027462E-1,5.0243527E-1,5.9608445E-2,-4.3829033E-1,3.366994E-1,-6.4243805E-1,4.498393E-1,-3.466852E-1,-7.4143916E-1,-2.1397455E-1,-7.938516E-1,-1.554959E-2,-7.300446E-1,7.747225E-2,-8.346534E-2,7.2520755E-2,-5.233194E-1,6.173487E-1,1.4812168E-1,-5.656306E-1,-7.09931E-1,9.65748E-2,3.5878235E-1,-5.984282E-1,6.725398E-2,-8.392361E-1,-5.638191E-1,5.6584126E-1,-6.304743E-1,3.225444E-1,-2.5500315E-1,-8.133423E-1,-6.702435E-1,2.5470087E-1,9.806997E-3,-8.217915E-2,-2.9689768E-1,5.3388554E-1,7.584106E-2,-7.4785614E-1,-1.8101782E-2,-7.138223E-2,-9.589069E-2,7.4552953E-1,4.226693E-2,-3.8083836E-3,6.210524E-2,-7.570915E-2,-7.963616E-2,7.47874E-2,8.15664E-2,-2.3041746E-2,-3.6465224E-2,3.8165588E-2,3.6521964E-3,-8.384936E-2,4.797751E-3,-8.951517E-2,-2.8833754E-3,-7.256973E-2,6.328791E-2,-6.890586E-2,-8.0221154E-2,2.1640727E-2,-4.3551583E-2,6.335419E-2,-8.0292694E-2,3.7715808E-2,-1.21801235E-2,-8.3473116E-2,-8.0725156E-2,4.7843787E-3,-7.147535E-2,4.815364E-2,-5.7967957E-2,2.043532E-2,7.113548E-2,-7.1640246E-2,6.3948266E-2,-7.623194E-2,1.2293703E-2,-6.09814E-2,8.261191E-2,1.8879166E-2],"categories":[],"categories_nodes":[],"categories_segments":[],"categories_sizes":[],"default_left":[0,0,0,0,0,0,0,0,0,0,0,0,0,0,0,0,0,0,0,0,0,0,0,0,0,0,0,0,0,0,0,0,0,0,0,0,0,0,0,0,0,0,0,0,0,0,0,0,0,0,0,0,0,0,0,0,0,0,0,0,0,0,0,0,0,0,0,0,0,0,0,0,0,0,0,0,0,0,0,0,0,0,0,0,0,0,0,0,0,0,0,0,0,0,0,0,0],"id":4,"left_children":[1,3,5,7,9,11,13,15,17,19,21,23,25,27,29,31,33,35,37,39,41,43,45,47,49,51,-1,-1,-1,53,55,57,59,61,63,65,67,-1,69,71,73,75,77,79,81,83,85,-1,-1,87,89,-1,91,-1,-1,93,95,-1,-1,-1,-1,-1,-1,-1,-1,-1,-1,-1,-1,-1,-1,-1,-1,-1,-1,-1,-1,-1,-1,-1,-1,-1,-1,-1,-1,-1,-1,-1,-1,-1,-1,-1,-1,-1,-1,-1,-1],"loss_changes":[2.847032E2,1.22141846E2,6.148944E1,6.5614365E1,5.0053513E1,3.5294495E1,2.1366283E1,2.6975813E1,4.2640198E1,2.8365156E1,1.4165344E1,3.288846E1,1.8973297E1,1.2443071E1,9.574671E0,2.204591E1,2.1858095E1,4.041249E1,1.2371382E1,1.1515438E1,1.621608E1,6.827141E0,1.5258575E1,2.052597E0,2.7071E1,1.5967621E1,0E0,0E0,0E0,4.216919E-1,6.566189E0,1.7828308E1,1.1698728E1,1.3142441E1,1.2272188E1,3.1617538E1,6.9330654E0,0E0,2.0337696E0,8.692322E-1,7.6658554E0,8.833853E0,6.3508935E0,9.778799E0,2.483345E0,3.5830574E0,8.157352E0,0E0,0E0,1.6529875E1,1.3671181E1,0E0,1.20155945E1,0E0,0E0,1.3916714E0,2.5509453E0,0E0,0E0,0E0,0E0,0E0,0E0,0E0,0E0,0E0,0E0,0E0,0E0,0E0,0E0,0E0,0E0,0E0,0E0,0E0,0E0,0E0,0E0,0E0,0E0,0E0,0E0,0E0,0E0,0E0,0E0,0E0,0E0,0E0,0E0,0E0,0E0,0E0,0E0,0E0,0E0],"parents":[2147483647,0,0,1,1,2,2,3,3,4,4,5,5,6,6,7,7,8,8,9,9,10,10,11,11,12,12,13,13,14,14,15,15,16,16,17,17,18,18,19,19,20,20,21,21,22,22,23,23,24,24,25,25,29,29,30,30,31,31,32,32,33,33,34,34,35,35,36,36,38,38,39,39,40,40,41,41,42,42,43,43,44,44,45,45,46,46,49,49,50,50,52,52,55,55,56,56],"right_children":[2,4,6,8,10,12,14,16,18,20,22,24,26,28,30,32,34,36,38,40,42,44,46,48,50,52,-1,-1,-1,54,56,58,60,62,64,66,68,-1,70,72,74,76,78,80,82,84,86,-1,-1,88,90,-1,92,-1,-1,94,96,-1,-1,-1,-1,-1,-1,-1,-1,-1,-1,-1,-1,-1,-1,-1,-1,-1,-1,-1,-1,-1,-1,-1,-1,-1,-1,-1,-1,-1,-1,-1,-1,-1,-1,-1,-1,-1,-1,-1,-1],"split_conditions":[1.3053661E-2,-1.8410036E-2,1.08799E5,-3.143639E-1,-2.5017126E-2,-2.5746796E-2,5.070614E-3,2.490528E-2,2.3130625E-2,-1.1031855E-2,3.8738143E-2,9.791323E-3,3.1018365E-2,-6.041705E-3,-2.6447916E-2,3.0929908E-2,5.784772E-3,3.4965801E0,-2.5139078E-2,-2.095646E-2,1.4846161E-2,-6.7739286E-2,1.6206786E-2,-3.201598E-2,4.4639693E-3,-1.9246768E-2,7.747225E-2,-8.346534E-2,7.2520755E-2,-3.7040357E-2,8.282388E-3,-3.1180514E-3,-3.6199067E-2,5.300821E-2,-4.965731E-3,1.4162684E-2,-1.8819371E-2,6.725398E-2,-5.9104852E-2,-3.3149153E-2,2.8317252E-2,3.3063296E-2,-1.4167168E-3,-2.1333449E-2,-2.7229428E-2,1.3071338E-2,-1.7086579E-2,9.806997E-3,-8.217915E-2,1.1022655E-2,-1.2604998E-2,7.584106E-2,-5.2404806E-2,-1.8101782E-2,-7.138223E-2,2.359826E-2,2.6092308E-2,4.226693E-2,-3.8083836E-3,6.210524E-2,-7.570915E-2,-7.963616E-2,7.47874E-2,8.15664E-2,-2.3041746E-2,-3.6465224E-2,3.8165588E-2,3.6521964E-3,-8.384936E-2,4.797751E-3,-8.951517E-2,-2.8833754E-3,-7.256973E-2,6.328791E-2,-6.890586E-2,-8.0221154E-2,2.1640727E-2,-4.3551583E-2,6.335419E-2,-8.0292694E-2,3.7715808E-2,-1.21801235E-2,-8.3473116E-2,-8.0725156E-2,4.7843787E-3,-7.147535E-2,4.815364E-2,-5.7967957E-2,2.043532E-2,7.113548E-2,-7.1640246E-2,6.3948266E-2,-7.623194E-2,1.2293703E-2,-6.09814E-2,8.261191E-2,1.8879166E-2],"split_indices":[214,4035,4611,4609,3643,3754,3504,840,2629,2187,3143,3690,570,1446,4456,1033,894,4609,1407,4585,2737,1547,4523,48,4585,1039,0,0,0,4,218,1043,2256,977,4530,3263,3061,0,40,5,1468,189,2339,4528,1556,358,55,0,0,630,4435,0,2309,0,0,2,2460,0,0,0,0,0,0,0,0,0,0,0,0,0,0,0,0,0,0,0,0,0,0,0,0,0,0,0,0,0,0,0,0,0,0,0,0,0,0,0,0],"split_type":[0,0,0,0,0,0,0,0,0,0,0,0,0,0,0,0,0,0,0,0,0,0,0,0,0,0,0,0,0,0,0,0,0,0,0,0,0,0,0,0,0,0,0,0,0,0,0,0,0,0,0,0,0,0,0,0,0,0,0,0,0,0,0,0,0,0,0,0,0,0,0,0,0,0,0,0,0,0,0,0,0,0,0,0,0,0,0,0,0,0,0,0,0,0,0,0,0],"sum_hessian":[3.9266255E3,2.982239E3,9.443864E2,2.5350278E3,4.4721106E2,8.388535E2,1.0553289E2,5.448158E2,1.9902122E3,1.7753154E2,2.6967953E2,2.5123074E2,5.876228E2,2.8045008E1,7.7487885E1,3.958442E2,1.4897157E2,1.9455875E3,4.462459E1,9.42186E1,8.331294E1,2.0012341E2,6.9556114E1,7.813287E1,1.7309787E2,5.798927E2,7.7300925E0,2.2329731E1,5.7152767E0,7.4482613E0,7.003963E1,3.4742358E2,4.8420635E1,9.857912E1,5.0392452E1,1.9013047E3,4.4282814E1,5.4943924E0,3.91302E1,9.278652E0,8.493995E1,5.8544746E1,2.4768194E1,2.6357452E1,1.7376596E2,3.502662E1,3.4529495E1,2.2969651E0,7.583591E1,1.14781555E2,5.8316322E1,6.365531E0,5.7352716E2,3.3604E0,4.0878615E0,1.0708118E1,5.9331505E1,1.398921E2,2.0753146E2,6.4151983E0,4.2005436E1,9.348999E1,5.089123E0,1.5284919E1,3.5107536E1,5.781491E1,1.8434897E3,1.2381856E1,3.1900957E1,2.328342E0,3.6801857E1,2.4290595E0,6.849592E0,8.110303E1,3.8369212E0,4.8718067E1,9.826678E0,7.088792E0,1.7679403E1,1.3974751E1,1.2382701E1,5.414075E0,1.6835188E2,2.9310188E1,5.716431E0,6.1394806E0,2.8390017E1,7.328256E1,4.1498997E1,5.144511E1,6.871212E0,5.4715624E0,5.680556E2,8.043848E0,2.6642704E0,5.1406406E1,7.9250975E0],"tree_param":{"num_deleted":"0","num_feature":"4615","num_nodes":"97","size_leaf_vector":"1"}},{"base_weights":[9.959618E-3,1.840632E-1,-3.6708605E-1,2.983833E-1,-1.19562455E-1,-5.1788425E-1,1.9352868E-2,3.524709E-1,1.65908E-2,1.0354003E-1,-4.531965E-1,-6.090486E-1,1.05850525E-1,-5.627004E-1,1.8617103E-1,3.970746E-1,-5.385324E-2,3.7322608E-1,-1.8429463E-1,3.836952E-1,-1.2800969E-1,-6.366624E-1,1.2619053E-1,-6.9421375E-1,-2.2390698E-1,6.8962944E-1,-1.9603327E-1,2.2532926E-1,-7.484896E-1,4.0005046E-1,-2.4226323E-1,4.9130532E-1,1.6801327E-1,4.936925E-1,-2.4613938E-1,7.635416E-2,7.459351E-1,-5.179849E-1,1.2849008E-1,5.0095975E-1,-4.2056328E-1,4.3615723E-1,-2.886232E-1,-6.9787204E-1,1.1698878E-1,-5.1290274E-1,4.2468494E-1,1.449002E-1,-7.2739637E-1,3.8881606E-1,-5.1438224E-1,1.4481899E-1,8.131614E-2,8.303733E-2,-3.646549E-1,6.890362E-2,-6.539739E-2,2.0437175E-2,-7.905653E-2,5.001762E-1,-4.9268353E-1,-6.213462E-1,2.101016E-1,1.5996015E-2,6.016736E-2,5.921616E-4,3.7139352E-2,8.014891E-2,-1.7299317E-2,-3.934497E-3,-7.4092716E-2,-3.5772555E-2,5.1010083E-2,-1.2045517E-3,8.2255505E-2,5.5097904E-2,-6.726327E-2,4.3172702E-2,-4.2913042E-2,6.8118386E-2,-1.278753E-2,5.183187E-2,-7.213923E-2,6.347095E-2,-7.937506E-2,2.2637485E-2,-4.2613197E-2,-7.259279E-2,6.88246E-2,6.0853463E-2,-6.7455545E-2,-7.211814E-2,8.522852E-3,5.7254978E-2,-7.109233E-2,8.066022E-2,-7.261637E-2,4.823055E-2,-7.481545E-2,6.528952E-2,-6.0086813E-2,5.1291466E-2,-6.637993E-2,3.844535E-3,1.7429223E-2,2.6916137E-2,-5.4900743E-2,7.175665E-2,1.8009767E-2,3.0369965E-2,-7.6920725E-2,-7.544904E-2,6.5645985E-2,-3.140434E-2,6.922693E-2],"categories":[],"categories_nodes":[],"categories_segments":[],"categories_sizes":[],"default_left":[0,0,0,0,0,0,0,0,0,0,0,0,0,0,0,0,0,0,0,0,0,0,0,0,0,0,0,0,0,0,0,0,0,0,0,0,0,0,0,0,0,0,0,0,0,0,0,0,0,0,0,0,0,0,0,0,0,0,0,0,0,0,0,0,0,0,0,0,0,0,0,0,0,0,0,0,0,0,0,0,0,0,0,0,0,0,0,0,0,0,0,0,0,0,0,0,0,0,0,0,0,0,0,0,0,0,0,0,0,0,0,0,0,0,0],"id":5,"left_children":[1,3,5,7,9,11,13,15,17,19,21,23,25,27,29,31,33,35,37,39,41,43,45,47,49,51,53,55,57,59,61,63,65,67,69,71,73,75,77,79,81,83,85,87,89,91,93,95,97,99,101,103,-1,-1,105,-1,-1,-1,-1,107,109,111,113,-1,-1,-1,-1,-1,-1,-1,-1,-1,-1,-1,-1,-1,-1,-1,-1,-1,-1,-1,-1,-1,-1,-1,-1,-1,-1,-1,-1,-1,-1,-1,-1,-1,-1,-1,-1,-1,-1,-1,-1,-1,-1,-1,-1,-1,-1,-1,-1,-1,-1,-1,-1],"loss_changes":[2.396794E2,8.673353E1,6.72222E1,2.7654755E1,5.0954018E1,4.724141E1,3.1632895E1,2.7615005E1,2.1081253E1,2.6688782E1,2.9232922E1,2.3592773E1,1.893079E1,1.0794945E1,2.3291794E1,2.9532547E1,1.6070368E1,1.1672751E1,1.9718416E1,1.7759886E1,2.0566814E1,9.6981125E0,1.2959558E1,1.6601074E1,2.3797436E1,2.3437424E0,1.2604486E1,6.4100327E0,2.5255928E0,1.5372036E1,1.4691212E1,3.543564E1,1.3231546E1,8.285986E0,1.1510254E1,1.1502394E1,2.7329788E0,1.546311E1,1.675414E1,1.8543747E1,7.2152996E0,1.2808747E1,1.2574145E1,8.003029E0,6.8362894E0,2.766965E0,8.143833E0,1.4056016E1,1.4675812E1,1.1685328E1,1.4212576E1,1.8308029E-2,0E0,0E0,7.3621845E0,0E0,0E0,0E0,0E0,1.0492371E1,4.102553E0,8.3978615E0,1.019005E1,0E0,0E0,0E0,0E0,0E0,0E0,0E0,0E0,0E0,0E0,0E0,0E0,0E0,0E0,0E0,0E0,0E0,0E0,0E0,0E0,0E0,0E0,0E0,0E0,0E0,0E0,0E0,0E0,0E0,0E0,0E0,0E0,0E0,0E0,0E0,0E0,0E0,0E0,0E0,0E0,0E0,0E0,0E0,0E0,0E0,0E0,0E0,0E0,0E0,0E0,0E0,0E0],"parents":[2147483647,0,0,1,1,2,2,3,3,4,4,5,5,6,6,7,7,8,8,9,9,10,10,11,11,12,12,13,13,14,14,15,15,16,16,17,17,18,18,19,19,20,20,21,21,22,22,23,23,24,24,25,25,26,26,27,27,28,28,29,29,30,30,31,31,32,32,33,33,34,34,35,35,36,36,37,37,38,38,39,39,40,40,41,41,42,42,43,43,44,44,45,45,46,46,47,47,48,48,49,49,50,50,51,51,54,54,59,59,60,60,61,61,62,62],"right_children":[2,4,6,8,10,12,14,16,18,20,22,24,26,28,30,32,34,36,38,40,42,44,46,48,50,52,54,56,58,60,62,64,66,68,70,72,74,76,78,80,82,84,86,88,90,92,94,96,98,100,102,104,-1,-1,106,-1,-1,-1,-1,108,110,112,114,-1,-1,-1,-1,-1,-1,-1,-1,-1,-1,-1,-1,-1,-1,-1,-1,-1,-1,-1,-1,-1,-1,-1,-1,-1,-1,-1,-1,-1,-1,-1,-1,-1,-1,-1,-1,-1,-1,-1,-1,-1,-1,-1,-1,-1,-1,-1,-1,-1,-1,-1,-1],"split_conditions":[1.2680529E-2,-8.801893E-3,1E0,1.071302E-2,-1.6302962E-2,2E4,-1.9172695E-2,2.6290175E-2,-7.804119E-3,-7.0606666E-3,2E1,6.7499024E-3,-2.5256349E-2,-4.3258227E-2,-9.282658E-3,4.5690835E-1,-2.5977656E-2,6.999907E-5,3.0155224E-3,9.772922E-3,-1.201592E-2,6.239805E-2,-4.1567307E-2,-4.882819E-2,-6.506112E-3,-2.718138E-2,-7.0065237E-3,-2.360203E-2,-5.3106125E-2,4.0391546E-2,-7.434678E-3,-3.143639E-1,-3.6983176E-3,2.4470914E-2,-1.8449193E-2,1.00535685E-2,-4.610612E-2,-1.4322445E-2,-2.8335819E-2,3.151833E-2,-1.5687456E-2,1.3876346E-2,-5.537938E-2,2.168534E-2,-2.0564958E-2,-1.1619131E-2,3.2042766E-3,9.257268E-3,-2.840491E-2,1.3283191E-2,-2.9930986E-2,-1.5604495E-2,8.131614E-2,8.303733E-2,-1.4970247E-2,6.890362E-2,-6.539739E-2,2.0437175E-2,-7.905653E-2,-3.5223784E-3,-2.1163937E-2,1.5876157E-2,-1.0731582E-2,1.5996015E-2,6.016736E-2,5.921616E-4,3.7139352E-2,8.014891E-2,-1.7299317E-2,-3.934497E-3,-7.4092716E-2,-3.5772555E-2,5.1010083E-2,-1.2045517E-3,8.2255505E-2,5.5097904E-2,-6.726327E-2,4.3172702E-2,-4.2913042E-2,6.8118386E-2,-1.278753E-2,5.183187E-2,-7.213923E-2,6.347095E-2,-7.937506E-2,2.2637485E-2,-4.2613197E-2,-7.259279E-2,6.88246E-2,6.0853463E-2,-6.7455545E-2,-7.211814E-2,8.522852E-3,5.7254978E-2,-7.109233E-2,8.066022E-2,-7.261637E-2,4.823055E-2,-7.481545E-2,6.528952E-2,-6.0086813E-2,5.1291466E-2,-6.637993E-2,3.844535E-3,1.7429223E-2,2.6916137E-2,-5.4900743E-2,7.175665E-2,1.8009767E-2,3.0369965E-2,-7.6920725E-2,-7.544904E-2,6.5645985E-2,-3.140434E-2,6.922693E-2],"split_indices":[116,1366,4614,1371,3600,4611,4406,1619,2103,1925,4611,4248,76,1577,3251,4609,2267,140,69,3238,2561,2019,712,2820,2678,169,3131,3880,1569,3213,907,4609,1776,2261,75,1738,443,1581,1253,1842,536,2323,101,103,1225,1,1978,4419,2404,2666,1868,2,0,0,3220,0,0,0,0,4479,105,211,3090,0,0,0,0,0,0,0,0,0,0,0,0,0,0,0,0,0,0,0,0,0,0,0,0,0,0,0,0,0,0,0,0,0,0,0,0,0,0,0,0,0,0,0,0,0,0,0,0,0,0,0,0],"split_type":[0,0,0,0,0,0,0,0,0,0,0,0,0,0,0,0,0,0,0,0,0,0,0,0,0,0,0,0,0,0,0,0,0,0,0,0,0,0,0,0,0,0,0,0,0,0,0,0,0,0,0,0,0,0,0,0,0,0,0,0,0,0,0,0,0,0,0,0,0,0,0,0,0,0,0,0,0,0,0,0,0,0,0,0,0,0,0,0,0,0,0,0,0,0,0,0,0,0,0,0,0,0,0,0,0,0,0,0,0,0,0,0,0,0,0],"sum_hessian":[3.649116E3,2.49674E3,1.152376E3,1.8138228E3,6.8291724E2,8.286685E2,3.237075E2,1.521528E3,2.922948E2,4.096633E2,2.732539E2,7.230167E2,1.0565175E2,7.158025E1,2.5212724E2,1.3710459E3,1.50482E2,1.05010315E2,1.8728448E2,1.8507794E2,2.2458537E2,2.0746135E2,6.579257E1,5.914326E2,1.315841E2,3.5574272E1,7.007748E1,1.3615775E1,5.7964474E1,1.6821739E2,8.390985E1,9.7061273E2,4.004332E2,3.870365E1,1.1177834E2,5.912258E1,4.5887733E1,9.029664E1,9.698784E1,1.6185574E2,2.3222197E1,4.9388615E1,1.7519675E2,1.9194598E2,1.5515356E1,2.0717323E1,4.507525E1,2.2370312E1,5.690623E2,4.220954E1,8.9374565E1,6.9768286E0,2.859744E1,9.334363E0,6.0743114E1,9.05627E0,4.5595055E0,2.288187E0,5.567629E1,1.5164874E2,1.6568638E1,4.5449497E1,3.8460354E1,2.4313313E2,7.274796E2,2.2340842E2,1.7702477E2,2.6340515E1,1.2363135E1,7.9592514E1,3.218583E1,2.9637547E1,2.9485035E1,4.2900677E0,4.1597668E1,1.1088354E1,7.920829E1,6.2970123E1,3.401771E1,1.2573644E2,3.6119293E1,5.4596767E0,1.776252E1,4.2940395E1,6.4482174E0,3.678463E1,1.3841212E2,1.8860481E2,3.341178E0,9.714127E0,5.801229E0,1.5213885E1,5.503437E0,4.0320972E1,4.754276E0,1.2755002E1,9.615309E0,9.225136E0,5.5983716E2,3.3587605E1,8.621938E0,1.1039714E1,7.8334854E1,2.0136514E0,4.963177E0,1.3583184E1,4.715993E1,8.957174E1,6.2077003E1,4.244959E0,1.2323679E1,4.1531555E1,3.9179435E0,1.859508E1,1.9865276E1],"tree_param":{"num_deleted":"0","num_feature":"4615","num_nodes":"115","size_leaf_vector":"1"}},{"base_weights":[-7.7406093E-3,1.2691396E-1,-4.5412055E-1,2.0578782E-1,-2.4885258E-1,-5.746348E-1,-6.176103E-2,2.6199034E-1,-9.544245E-2,-4.733355E-1,5.358933E-2,-6.3154006E-1,-7.120045E-3,4.7192454E-1,-3.8139147E-1,3.1556427E-1,-2.2489034E-2,-4.3200263E-1,1.1717507E-1,-6.547379E-1,-9.792344E-2,3.188382E-1,-3.040671E-1,7.303242E-1,-6.559806E-1,4.5691997E-1,-4.4476038E-1,-5.5826545E-1,6.627655E-1,-5.1855755E-1,5.4715866E-1,4.0678656E-1,1.3906911E-1,2.5609088E-1,-3.546221E-1,-6.1785066E-1,1.0608169E-1,-2.3587969E-1,3.375029E-1,-7.249959E-1,2.2408852E-1,-3.6416626E-1,4.6034294E-1,6.327856E-1,-1.4057708E-1,3.208461E-1,-6.067643E-1,8.7476335E-2,2.0901239E-2,4.5618498E-1,-6.8103963E-1,6.8164855E-1,-3.411901E-1,-7.727694E-2,2.4800079E-1,3.9031137E-2,-6.9584034E-2,7.535523E-1,-5.851504E-2,-6.3379645E-1,3.9283562E-1,-1.7962452E-2,7.5322114E-2,4.5218676E-2,-8.645057E-3,3.1087896E-2,-5.7038297E-3,4.82965E-2,-2.4128038E-2,-1.3180727E-2,-7.1006015E-2,6.248778E-2,-6.728816E-2,-7.208728E-2,3.9559685E-2,-6.1033655E-2,7.954005E-3,4.3349057E-2,-6.270807E-2,4.562616E-2,-7.710684E-2,-6.1024573E-2,6.559053E-2,-5.466606E-2,5.2175324E-2,7.846958E-2,-2.9550007E-2,-1.9444158E-2,7.7469505E-2,2.2940427E-2,-6.896022E-2,-6.674751E-2,6.166721E-2,1.9168027E-2,-7.258927E-2,7.573708E-2,-6.5538846E-2,-2.67202E-2,-7.3009074E-2,7.524608E-2,1.6995788E-2,-5.0129867E-3,-5.6022406E-2,4.7409605E-2,8.021107E-4,-7.4468884E-3,8.027791E-2,-7.2011285E-2,6.759823E-2,-3.987434E-2,5.0663006E-2],"categories":[],"categories_nodes":[],"categories_segments":[],"categories_sizes":[],"default_left":[0,0,0,0,0,0,0,0,0,0,0,0,0,0,0,0,0,0,0,0,0,0,0,0,0,0,0,0,0,0,0,0,0,0,0,0,0,0,0,0,0,0,0,0,0,0,0,0,0,0,0,0,0,0,0,0,0,0,0,0,0,0,0,0,0,0,0,0,0,0,0,0,0,0,0,0,0,0,0,0,0,0,0,0,0,0,0,0,0,0,0,0,0,0,0,0,0,0,0,0,0,0,0,0,0,0,0,0,0,0,0],"id":6,"left_children":[1,3,5,7,9,11,13,15,17,19,21,23,25,27,29,31,33,35,37,39,41,43,45,47,49,51,53,55,57,59,61,63,65,67,69,71,73,75,77,79,81,83,85,87,89,91,93,-1,-1,95,97,99,101,-1,103,-1,-1,105,-1,107,109,-1,-1,-1,-1,-1,-1,-1,-1,-1,-1,-1,-1,-1,-1,-1,-1,-1,-1,-1,-1,-1,-1,-1,-1,-1,-1,-1,-1,-1,-1,-1,-1,-1,-1,-1,-1,-1,-1,-1,-1,-1,-1,-1,-1,-1,-1,-1,-1,-1,-1],"loss_changes":[1.9819775E2,7.5133E1,3.609822E1,3.548195E1,2.989438E1,1.8871231E1,3.1001425E1,2.6911385E1,2.3668219E1,1.7139309E1,1.7962908E1,1.8160202E1,1.1226017E1,1.376384E1,1.4747028E1,2.386203E1,2.6062124E1,1.286504E1,1.5874657E1,1.0667854E1,1.2574924E1,1.5755355E1,1.546083E1,5.5797243E-1,1.4869049E1,5.0460744E0,6.6541257E0,1.7319751E0,7.0047455E0,1.0694532E1,2.39706E0,2.1959122E1,1.712458E1,1.7407578E1,1.007996E1,6.9365883E0,8.3562975E0,9.333696E0,1.1886026E1,8.938919E0,5.2132583E0,9.513403E0,6.948447E0,7.74667E0,9.281198E0,8.302645E0,5.3435287E0,0E0,0E0,4.55049E0,1.0183105E1,6.4297295E-1,3.9031374E-1,0E0,5.3312695E-1,0E0,0E0,2.278967E0,0E0,1.0511841E1,1.2632271E0,0E0,0E0,0E0,0E0,0E0,0E0,0E0,0E0,0E0,0E0,0E0,0E0,0E0,0E0,0E0,0E0,0E0,0E0,0E0,0E0,0E0,0E0,0E0,0E0,0E0,0E0,0E0,0E0,0E0,0E0,0E0,0E0,0E0,0E0,0E0,0E0,0E0,0E0,0E0,0E0,0E0,0E0,0E0,0E0,0E0,0E0,0E0,0E0,0E0,0E0],"parents":[2147483647,0,0,1,1,2,2,3,3,4,4,5,5,6,6,7,7,8,8,9,9,10,10,11,11,12,12,13,13,14,14,15,15,16,16,17,17,18,18,19,19,20,20,21,21,22,22,23,23,24,24,25,25,26,26,27,27,28,28,29,29,30,30,31,31,32,32,33,33,34,34,35,35,36,36,37,37,38,38,39,39,40,40,41,41,42,42,43,43,44,44,45,45,46,46,49,49,50,50,51,51,52,52,54,54,57,57,59,59,60,60],"right_children":[2,4,6,8,10,12,14,16,18,20,22,24,26,28,30,32,34,36,38,40,42,44,46,48,50,52,54,56,58,60,62,64,66,68,70,72,74,76,78,80,82,84,86,88,90,92,94,-1,-1,96,98,100,102,-1,104,-1,-1,106,-1,108,110,-1,-1,-1,-1,-1,-1,-1,-1,-1,-1,-1,-1,-1,-1,-1,-1,-1,-1,-1,-1,-1,-1,-1,-1,-1,-1,-1,-1,-1,-1,-1,-1,-1,-1,-1,-1,-1,-1,-1,-1,-1,-1,-1,-1,-1,-1,-1,-1,-1,-1],"split_conditions":[1.3053661E-2,4.059749E-3,1E0,-2.1197444E-2,4.5747947E-2,1.08799E5,-3.6204223E-2,1.6352478E-2,1.8185398E-2,1.1376512E-2,-1.6993139E-2,-2.4247803E-2,2.6363527E-2,1.0650514E-2,1.848702E-2,-1.2942228E-2,2.9197917E-3,3.98736E-3,-6.5899333E-3,3.4755535E-2,7.697995E-3,-5.1534146E-2,-1.1003483E-2,2.74232E-2,-6.95504E-2,-9.0017E-3,3.126248E-3,-5.1275283E-2,2.9946456E-3,4.23982E-2,-3.4915537E-2,3.3442236E-2,1.0428404E-2,1.6872564E-2,1.2440942E-2,-2.3410298E-2,-2.2538023E-2,2.6632633E-2,-1.18071325E-2,-6.0369562E-2,1.6750984E-2,2.1642506E-2,1.9031001E-2,-3.0061202E-2,-4.0741846E-2,-7.322929E-3,-4.215291E-2,8.7476335E-2,2.0901239E-2,-1.2200327E-2,-3.7340667E-2,3.8249725E-3,-3.9882503E-2,-7.727694E-2,-7.616632E-3,3.9031137E-2,-6.9584034E-2,-3.167112E-2,-5.851504E-2,5.353143E-2,-2.7164744E-2,-1.7962452E-2,7.5322114E-2,4.5218676E-2,-8.645057E-3,3.1087896E-2,-5.7038297E-3,4.82965E-2,-2.4128038E-2,-1.3180727E-2,-7.1006015E-2,6.248778E-2,-6.728816E-2,-7.208728E-2,3.9559685E-2,-6.1033655E-2,7.954005E-3,4.3349057E-2,-6.270807E-2,4.562616E-2,-7.710684E-2,-6.1024573E-2,6.559053E-2,-5.466606E-2,5.2175324E-2,7.846958E-2,-2.9550007E-2,-1.9444158E-2,7.7469505E-2,2.2940427E-2,-6.896022E-2,-6.674751E-2,6.166721E-2,1.9168027E-2,-7.258927E-2,7.573708E-2,-6.5538846E-2,-2.67202E-2,-7.3009074E-2,7.524608E-2,1.6995788E-2,-5.0129867E-3,-5.6022406E-2,4.7409605E-2,8.021107E-4,-7.4468884E-3,8.027791E-2,-7.2011285E-2,6.759823E-2,-3.987434E-2,5.0663006E-2],"split_indices":[214,4250,4614,3101,3572,4611,3401,1881,404,1788,3083,467,920,2716,1038,1011,472,3507,3094,3183,3141,3948,3902,7,3304,1526,3076,0,3770,3504,1580,141,3835,2718,980,2337,153,49,651,1253,1736,2568,3511,1201,442,2066,2902,0,0,17,3754,6,1,0,25,0,0,336,0,2446,1560,0,0,0,0,0,0,0,0,0,0,0,0,0,0,0,0,0,0,0,0,0,0,0,0,0,0,0,0,0,0,0,0,0,0,0,0,0,0,0,0,0,0,0,0,0,0,0,0,0,0],"split_type":[0,0,0,0,0,0,0,0,0,0,0,0,0,0,0,0,0,0,0,0,0,0,0,0,0,0,0,0,0,0,0,0,0,0,0,0,0,0,0,0,0,0,0,0,0,0,0,0,0,0,0,0,0,0,0,0,0,0,0,0,0,0,0,0,0,0,0,0,0,0,0,0,0,0,0,0,0,0,0,0,0,0,0,0,0,0,0,0,0,0,0,0,0,0,0,0,0,0,0,0,0,0,0,0,0,0,0,0,0,0,0],"sum_hessian":[3.2954512E3,2.5322812E3,7.6317E2,2.093339E3,4.3894214E2,5.8348615E2,1.7968382E2,1.7642935E3,3.2904556E2,2.5161768E2,1.8732446E2,5.3020874E2,5.3277397E1,6.712651E1,1.1255731E2,1.4846002E3,2.796932E2,1.2699254E2,2.0205304E2,1.691425E2,8.247517E1,1.0761927E2,7.970519E1,8.838388E0,5.2137036E2,2.5837381E1,2.7440018E1,1.0190623E1,5.693589E1,9.845501E1,1.4102305E1,9.77876E2,5.0672424E2,1.5223419E2,1.27459E2,9.4280815E1,3.2711727E1,7.7613716E1,1.24439316E2,1.5678345E2,1.2359057E1,5.607847E1,2.6396696E1,6.370694E1,4.3912334E1,2.598978E1,5.371541E1,6.3899345E0,2.4484537E0,1.1109431E1,5.1026093E2,2.0274494E1,5.5628877E0,1.8544205E1,8.895813E0,1.0580822E0,9.132541E0,5.3443954E1,3.491934E0,8.767388E1,1.0781126E1,3.143493E0,1.0958812E1,8.9552985E2,8.234618E1,2.697824E2,2.3694183E2,1.04565834E2,4.766836E1,7.918858E1,4.8270424E1,3.5588393E0,9.072197E1,8.096219E0,2.4615507E1,3.505842E1,4.25553E1,1.1367762E2,1.0761698E1,5.5512476E0,1.5123221E2,4.074095E0,8.284963E0,4.6817314E1,9.261153E0,1.844379E1,7.9529066E0,9.274322E0,5.4432617E1,2.6581526E1,1.7330807E1,5.697792E0,2.0291988E1,6.894797E0,4.6820614E1,8.991732E0,2.1177E0,5.4754257E1,4.5550668E2,1.7396479E1,2.8780153E0,2.9163733E0,2.6465142E0,4.078095E0,4.817718E0,2.9702375E0,5.0473717E1,8.267564E1,4.9982452E0,1.0403254E0,9.740801E0],"tree_param":{"num_deleted":"0","num_feature":"4615","num_nodes":"111","size_leaf_vector":"1"}},{"base_weights":[-2.846143E-3,1.5194073E-1,-3.6305788E-1,2.093575E-1,-3.6637363E-1,-4.93352E-1,4.595754E-3,-2.1216671E-1,2.5209615E-1,2.190832E-1,-5.1484567E-1,-5.5768704E-1,9.631635E-2,1.6283143E-1,-5.750863E-1,-6.2607956E-1,6.498264E-2,-2.1925125E-2,3.173438E-1,-7.114356E-2,4.2445493E-1,-6.4373326E-1,-2.487942E-2,4.4228992E-1,-5.800359E-1,6.905018E-1,-4.0141428E-1,4.1821286E-1,-2.042623E-1,-7.161367E-1,1.8152872E-2,-6.947418E-1,6.069997E-2,-4.606763E-1,2.7548563E-1,-6.113436E-1,5.6769602E-2,4.4024804E-1,9.3297556E-2,-8.373263E-2,6.8521863E-1,-6.990223E-1,1.3442273E-1,5.287868E-1,-5.3050256E-1,-6.13356E-2,7.840284E-2,4.27886E-1,-5.979239E-1,-5.4546576E-2,8.018943E-2,5.5052954E-1,-5.855188E-1,5.7252145E-1,-1.1673325E-1,-4.976995E-1,2.949967E-1,1.6324019E-2,-7.428546E-2,3.7511912E-1,-5.889917E-2,2.0929161E-2,-7.4087694E-2,-6.79574E-2,2.2044254E-3,4.9747214E-2,-2.2731142E-2,1.5126509E-2,-7.788836E-2,2.933507E-2,-1.2767011E-2,4.1498933E-3,5.2452356E-2,-2.3607858E-2,1.7818134E-2,4.495969E-3,-5.246329E-2,8.188899E-2,1.2059587E-2,-7.430377E-2,6.106702E-3,4.9632497E-2,-5.759394E-2,6.555916E-3,7.203321E-2,-7.0826255E-2,-2.515259E-3,-5.6209374E-2,8.152417E-2,5.4682296E-2,-6.1383974E-2,9.949031E-3,6.730226E-2,-7.277278E-2,1.864962E-2,-3.3350132E-2,6.561278E-2,-5.311354E-2,2.7640184E-2,-7.358791E-2,-5.4677348E-3,5.1858373E-2,-6.352877E-2,1.3585179E-2,5.6462415E-2],"categories":[],"categories_nodes":[],"categories_segments":[],"categories_sizes":[],"default_left":[0,0,0,0,0,0,0,0,0,0,0,0,0,0,0,0,0,0,0,0,0,0,0,0,0,0,0,0,0,0,0,0,0,0,0,0,0,0,0,0,0,0,0,0,0,0,0,0,0,0,0,0,0,0,0,0,0,0,0,0,0,0,0,0,0,0,0,0,0,0,0,0,0,0,0,0,0,0,0,0,0,0,0,0,0,0,0,0,0,0,0,0,0,0,0,0,0,0,0,0,0,0,0,0,0],"id":7,"left_children":[1,3,5,7,9,11,13,15,17,19,21,23,25,27,29,31,33,35,37,-1,39,41,43,45,47,49,51,53,55,57,59,61,-1,63,65,67,69,71,73,75,77,79,81,83,85,-1,-1,87,89,-1,-1,91,93,95,97,99,101,-1,-1,103,-1,-1,-1,-1,-1,-1,-1,-1,-1,-1,-1,-1,-1,-1,-1,-1,-1,-1,-1,-1,-1,-1,-1,-1,-1,-1,-1,-1,-1,-1,-1,-1,-1,-1,-1,-1,-1,-1,-1,-1,-1,-1,-1,-1,-1],"loss_changes":[1.7427974E2,6.514079E1,4.5005707E1,3.552392E1,1.909697E1,2.6368393E1,2.2733E1,2.089529E1,3.1976906E1,8.879258E0,1.1004795E1,1.4236908E1,2.0709637E1,1.8335314E1,4.460106E0,6.6025066E0,1.2275668E1,1.6028908E1,3.972905E1,0E0,5.012785E0,6.0368004E0,1.0746721E1,5.619025E0,1.1295822E1,4.8238525E0,7.022071E0,9.57044E0,1.194569E1,1.130661E0,2.6448965E0,3.0586586E0,0E0,3.3718734E0,8.933158E0,5.317976E0,1.3351365E1,3.1310959E1,1.438191E1,7.936804E-1,1.774682E0,4.3654404E0,2.857179E0,1.5806179E0,1.7824192E0,0E0,0E0,4.7763495E0,1.1305023E1,0E0,0E0,3.037908E-1,3.7057285E0,7.0002174E0,4.4812922E0,5.35143E0,6.6611624E0,0E0,0E0,2.703507E-1,0E0,0E0,0E0,0E0,0E0,0E0,0E0,0E0,0E0,0E0,0E0,0E0,0E0,0E0,0E0,0E0,0E0,0E0,0E0,0E0,0E0,0E0,0E0,0E0,0E0,0E0,0E0,0E0,0E0,0E0,0E0,0E0,0E0,0E0,0E0,0E0,0E0,0E0,0E0,0E0,0E0,0E0,0E0,0E0,0E0],"parents":[2147483647,0,0,1,1,2,2,3,3,4,4,5,5,6,6,7,7,8,8,9,9,10,10,11,11,12,12,13,13,14,14,15,15,16,16,17,17,18,18,20,20,21,21,22,22,23,23,24,24,25,25,26,26,27,27,28,28,29,29,30,30,31,31,33,33,34,34,35,35,36,36,37,37,38,38,39,39,40,40,41,41,42,42,43,43,44,44,47,47,48,48,51,51,52,52,53,53,54,54,55,55,56,56,59,59],"right_children":[2,4,6,8,10,12,14,16,18,20,22,24,26,28,30,32,34,36,38,-1,40,42,44,46,48,50,52,54,56,58,60,62,-1,64,66,68,70,72,74,76,78,80,82,84,86,-1,-1,88,90,-1,-1,92,94,96,98,100,102,-1,-1,104,-1,-1,-1,-1,-1,-1,-1,-1,-1,-1,-1,-1,-1,-1,-1,-1,-1,-1,-1,-1,-1,-1,-1,-1,-1,-1,-1,-1,-1,-1,-1,-1,-1,-1,-1,-1,-1,-1,-1,-1,-1,-1,-1,-1,-1],"split_conditions":[1.2680529E-2,-1.3282363E-2,1E0,-1.9310342E-2,-1.3896099E-2,4.0024813E-2,3.008559E-2,6.906131E-3,-3.143639E-1,-2.3268789E-2,3.4970213E-2,-1.5767278E-2,-1.0503257E-2,-2.1283033E-3,2E0,1.3324617E-2,-7.0317257E-3,5.1783666E-4,4.5690835E-1,-7.114356E-2,-8.974094E-3,3.4582466E-2,-1.39325885E-2,-3.107271E-2,-2.4247803E-2,-3.73149E-2,-6.085888E-2,1.3419914E-2,7.580509E-3,-4.139965E-2,-8.162156E-3,-3.1559825E-2,6.069997E-2,-7.6009016E-3,-1.8888837E-2,-6.2952824E-2,2.3323748E-2,1.7535742E-2,1.2589796E-2,-1.0557537E-5,2.3856767E-2,1.7819121E-2,-1.0570986E-2,2.7462918E-2,4.6873786E-2,-6.13356E-2,7.840284E-2,-1.3632616E-3,-4.962287E-2,-5.4546576E-2,8.018943E-2,3.068E-2,3.807511E-2,-1.3352755E-2,-5.1835105E-3,1.7173685E-2,1.3248246E-2,1.6324019E-2,-7.428546E-2,-5.9299874E-3,-5.889917E-2,2.0929161E-2,-7.4087694E-2,-6.79574E-2,2.2044254E-3,4.9747214E-2,-2.2731142E-2,1.5126509E-2,-7.788836E-2,2.933507E-2,-1.2767011E-2,4.1498933E-3,5.2452356E-2,-2.3607858E-2,1.7818134E-2,4.495969E-3,-5.246329E-2,8.188899E-2,1.2059587E-2,-7.430377E-2,6.106702E-3,4.9632497E-2,-5.759394E-2,6.555916E-3,7.203321E-2,-7.0826255E-2,-2.515259E-3,-5.6209374E-2,8.152417E-2,5.4682296E-2,-6.1383974E-2,9.949031E-3,6.730226E-2,-7.277278E-2,1.864962E-2,-3.3350132E-2,6.561278E-2,-5.311354E-2,2.7640184E-2,-7.358791E-2,-5.4677348E-3,5.1858373E-2,-6.352877E-2,1.3585179E-2,5.6462415E-2],"split_indices":[116,4035,4614,3094,4250,4311,3581,2888,4609,4248,3272,1279,4283,836,4612,201,1014,3478,4609,0,748,4604,4458,25,467,1653,3360,3915,3970,1963,90,449,0,4222,4208,270,2090,1955,385,29,201,4234,11,15,33,0,0,181,2169,0,0,15,93,4295,4327,2305,2525,0,0,17,0,0,0,0,0,0,0,0,0,0,0,0,0,0,0,0,0,0,0,0,0,0,0,0,0,0,0,0,0,0,0,0,0,0,0,0,0,0,0,0,0,0,0,0,0],"split_type":[0,0,0,0,0,0,0,0,0,0,0,0,0,0,0,0,0,0,0,0,0,0,0,0,0,0,0,0,0,0,0,0,0,0,0,0,0,0,0,0,0,0,0,0,0,0,0,0,0,0,0,0,0,0,0,0,0,0,0,0,0,0,0,0,0,0,0,0,0,0,0,0,0,0,0,0,0,0,0,0,0,0,0,0,0,0,0,0,0,0,0,0,0,0,0,0,0,0,0,0,0,0,0,0,0],"sum_hessian":[3.1237656E3,2.1852976E3,9.3846783E2,1.967898E3,2.1739972E2,6.926538E2,2.4581403E2,1.8079387E2,1.7871041E3,4.388323E1,1.7351648E2,6.2456555E2,6.8088264E1,1.936677E2,5.2146324E1,7.200217E1,1.087917E2,3.4382062E2,1.4432834E3,7.4886703E0,3.6394558E1,1.3713005E2,3.6386433E1,1.3242741E1,6.113228E2,3.0860287E1,3.7227974E1,1.1412998E2,7.953772E1,4.1962116E1,1.0184207E1,6.861786E1,3.3843064E0,3.0768782E1,7.802292E1,3.9700188E1,3.0412042E2,9.3138947E2,5.1189404E2,1.2572202E1,2.3822355E1,1.2812807E2,9.001982E0,1.7346214E1,1.904022E1,3.044213E0,1.0198527E1,1.02604885E1,6.010623E2,2.2291973E0,2.863109E1,5.7105083E0,3.1517467E1,8.852434E1,2.5605646E1,5.0096725E1,2.9440996E1,1.0866598E0,4.0875458E1,6.6541224E0,3.5300846E0,3.1600041E0,6.5457855E1,2.0888668E1,9.880115E0,5.413343E1,2.3889494E1,7.168361E0,3.2531826E1,1.3296962E2,1.7115082E2,1.627641E2,7.6862537E2,1.0452449E2,4.0736957E2,1.0426799E1,2.1454027E0,1.8898026E1,4.9243307E0,1.2113575E2,6.9923224E0,6.163316E0,2.8386655E0,5.4670715E0,1.1879142E1,1.3788499E1,5.2517204E0,2.7587473E0,7.5017414E0,7.784805E0,5.932775E2,1.6066766E0,4.103832E0,2.6663319E1,4.854148E0,7.2262397E0,8.1298096E1,1.2294762E1,1.33108835E1,3.2150684E1,1.794604E1,2.409298E1,5.348017E0,3.6997404E0,2.9543822E0],"tree_param":{"num_deleted":"0","num_feature":"4615","num_nodes":"105","size_leaf_vector":"1"}},{"base_weights":[-5.888729E-3,-2.779166E-1,1.7524664E-1,-3.8313338E-1,2.4671382E-1,-1.0966982E-1,2.514826E-1,-5.2737164E-1,-7.5500935E-2,3.2145098E-1,-7.534111E-2,-5.80939E-1,-5.715732E-3,3.1787074E-1,-4.7999676E-2,-1.5405053E-1,-6.1684763E-1,-2.4792303E-1,3.0890366E-1,4.439355E-1,-2.0951815E-1,5.911481E-2,-6.499745E-1,-4.8938236E-1,5.4619893E-2,4.2341888E-1,1.3174695E-1,1.3563797E-1,-4.347627E-1,3.941271E-1,-4.2874643E-1,-6.3912153E-1,3.107526E-1,3.2633197E-2,-6.2266153E-1,1.4832298E-2,6.097852E-1,5.1151466E-1,-6.134087E-2,4.362532E-1,-4.1893965E-1,-7.389049E-2,1.5670896E-2,3.9942485E-1,-6.9829935E-1,-4.7576198E-1,1.1008256E-1,4.5790225E-1,-5.364991E-1,4.1457707E-1,2.6780931E-2,3.5771635E-1,-3.3854204E-1,-1.4521557E-1,-7.5492024E-1,5.7132293E-2,-6.679918E-2,-5.7524927E-2,2.4354054E-2,2.0008026E-2,-6.553367E-2,-6.0013253E-2,8.124962E-2,-4.5236982E-2,4.2205554E-2,4.329202E-2,-7.1307E-2,-5.6560248E-2,1.8922126E-2,-4.664795E-3,7.3231146E-2,5.851504E-2,-2.2752782E-2,-2.1627694E-3,5.494361E-2,-6.9791056E-2,-1.6991591E-2,4.1909546E-2,-5.7299297E-2,6.108716E-2,1.3242652E-2,-7.453137E-2,-5.3098802E-3,1.5286321E-2,-7.597551E-2,1.5333767E-2,-6.477132E-2,6.194557E-2,2.595289E-2,1.2209176E-2,-7.656205E-2,4.9275633E-2,-2.4523119E-2,-1.3404195E-2,2.2674544E-2,5.9703022E-2,-6.6987583E-3,2.7042577E-2,-5.7094034E-2,-4.8282504E-2,4.1070838E-2,-2.2996662E-2,-7.9374485E-2],"categories":[],"categories_nodes":[],"categories_segments":[],"categories_sizes":[],"default_left":[0,0,0,0,0,0,0,0,0,0,0,0,0,0,0,0,0,0,0,0,0,0,0,0,0,0,0,0,0,0,0,0,0,0,0,0,0,0,0,0,0,0,0,0,0,0,0,0,0,0,0,0,0,0,0,0,0,0,0,0,0,0,0,0,0,0,0,0,0,0,0,0,0,0,0,0,0,0,0,0,0,0,0,0,0,0,0,0,0,0,0,0,0,0,0,0,0,0,0,0,0,0,0],"id":8,"left_children":[1,3,5,7,9,11,13,15,17,19,-1,21,23,25,27,29,31,33,35,37,39,-1,41,43,45,47,49,51,53,55,57,59,61,63,65,67,69,71,-1,73,75,-1,77,79,81,83,85,87,89,91,93,95,97,99,101,-1,-1,-1,-1,-1,-1,-1,-1,-1,-1,-1,-1,-1,-1,-1,-1,-1,-1,-1,-1,-1,-1,-1,-1,-1,-1,-1,-1,-1,-1,-1,-1,-1,-1,-1,-1,-1,-1,-1,-1,-1,-1,-1,-1,-1,-1,-1,-1],"loss_changes":[1.4436935E2,6.474059E1,3.8230743E1,4.32623E1,1.4910917E1,1.8219505E1,2.760868E1,2.2091766E1,2.0800331E1,1.2014149E1,0E0,5.8227196E0,8.949393E0,2.2264023E1,1.8006702E1,1.9706938E1,1.1261856E1,2.2772251E1,8.59694E0,1.0979355E1,4.921223E0,0E0,3.7971478E0,6.594494E0,8.075509E0,2.4229507E1,1.2237852E1,1.8244722E1,7.454088E0,8.631457E0,8.700503E0,7.2511444E0,6.533662E0,2.3744064E1,9.155533E0,5.189717E0,3.8988686E0,7.7977715E0,0E0,4.8193026E-1,1.7548776E0,0E0,2.2625313E0,3.2046258E-1,8.0681705E-1,4.7593846E0,8.219704E0,2.2271927E1,3.954403E0,5.878027E0,9.741925E0,1.2002446E1,7.9959893E0,8.471989E0,6.023426E-1,0E0,0E0,0E0,0E0,0E0,0E0,0E0,0E0,0E0,0E0,0E0,0E0,0E0,0E0,0E0,0E0,0E0,0E0,0E0,0E0,0E0,0E0,0E0,0E0,0E0,0E0,0E0,0E0,0E0,0E0,0E0,0E0,0E0,0E0,0E0,0E0,0E0,0E0,0E0,0E0,0E0,0E0,0E0,0E0,0E0,0E0,0E0,0E0],"parents":[2147483647,0,0,1,1,2,2,3,3,4,4,5,5,6,6,7,7,8,8,9,9,11,11,12,12,13,13,14,14,15,15,16,16,17,17,18,18,19,19,20,20,22,22,23,23,24,24,25,25,26,26,27,27,28,28,29,29,30,30,31,31,32,32,33,33,34,34,35,35,36,36,37,37,39,39,40,40,42,42,43,43,44,44,45,45,46,46,47,47,48,48,49,49,50,50,51,51,52,52,53,53,54,54],"right_children":[2,4,6,8,10,12,14,16,18,20,-1,22,24,26,28,30,32,34,36,38,40,-1,42,44,46,48,50,52,54,56,58,60,62,64,66,68,70,72,-1,74,76,-1,78,80,82,84,86,88,90,92,94,96,98,100,102,-1,-1,-1,-1,-1,-1,-1,-1,-1,-1,-1,-1,-1,-1,-1,-1,-1,-1,-1,-1,-1,-1,-1,-1,-1,-1,-1,-1,-1,-1,-1,-1,-1,-1,-1,-1,-1,-1,-1,-1,-1,-1,-1,-1,-1,-1,-1,-1],"split_conditions":[-1.8052089E-3,1.15E5,-3.143639E-1,-8.010444E-3,3.4158688E0,-2.4538399E-3,1.001453E-2,-3.7519E-2,1E0,5.4249624E-3,-7.534111E-2,-1.124425E-1,-2.8872987E-2,4.5690835E-1,-1.1570842E-3,-1.5176787E-2,4.493929E-2,8.48311E-3,1.3989136E-2,2.8596874E-2,-4.2880435E-2,5.911481E-2,3.4070283E-2,-4.5115568E-2,-2.0295175E-2,4.1069306E-2,-1.2329364E-2,-9.824998E-4,-1.2196069E-2,-4.9009067E-3,6.0916085E-2,-3.8334876E-2,1.50186885E-2,2.6152521E-2,-1.3013878E-2,1.7669363E-2,-3.9350163E-2,2.1202743E-2,-6.134087E-2,-3.5931E-2,4.419974E-2,-7.389049E-2,-5.6269797E-3,9.786252E-3,1.3254906E-2,-2.5124814E-2,-5.2357907E-3,9.874322E-4,-2.6029944E-2,1.661475E-2,-4.0917504E-3,-6.0772384E-3,-4.0902E-3,1.8143274E-2,-5.1267713E-2,5.7132293E-2,-6.679918E-2,-5.7524927E-2,2.4354054E-2,2.0008026E-2,-6.553367E-2,-6.0013253E-2,8.124962E-2,-4.5236982E-2,4.2205554E-2,4.329202E-2,-7.1307E-2,-5.6560248E-2,1.8922126E-2,-4.664795E-3,7.3231146E-2,5.851504E-2,-2.2752782E-2,-2.1627694E-3,5.494361E-2,-6.9791056E-2,-1.6991591E-2,4.1909546E-2,-5.7299297E-2,6.108716E-2,1.3242652E-2,-7.453137E-2,-5.3098802E-3,1.5286321E-2,-7.597551E-2,1.5333767E-2,-6.477132E-2,6.194557E-2,2.595289E-2,1.2209176E-2,-7.656205E-2,4.9275633E-2,-2.4523119E-2,-1.3404195E-2,2.2674544E-2,5.9703022E-2,-6.6987583E-3,2.7042577E-2,-5.7094034E-2,-4.8282504E-2,4.1070838E-2,-2.2996662E-2,-7.9374485E-2],"split_indices":[1180,4611,4609,4406,4609,3969,1576,1368,4614,4134,0,3869,1194,4609,1523,3406,3737,1844,4484,4058,3601,0,1113,1227,124,1619,2180,2380,962,3147,15,3583,122,3780,4319,4409,4391,645,0,0,15,0,18,4,0,2200,1680,1347,2724,4147,3058,1857,1521,2550,16,0,0,0,0,0,0,0,0,0,0,0,0,0,0,0,0,0,0,0,0,0,0,0,0,0,0,0,0,0,0,0,0,0,0,0,0,0,0,0,0,0,0,0,0,0,0,0,0],"split_type":[0,0,0,0,0,0,0,0,0,0,0,0,0,0,0,0,0,0,0,0,0,0,0,0,0,0,0,0,0,0,0,0,0,0,0,0,0,0,0,0,0,0,0,0,0,0,0,0,0,0,0,0,0,0,0,0,0,0,0,0,0,0,0,0,0,0,0,0,0,0,0,0,0,0,0,0,0,0,0,0,0,0,0,0,0,0,0,0,0,0,0,0,0,0,0,0,0,0,0,0,0,0,0],"sum_hessian":[2.9279487E3,1.1701263E3,1.7578223E3,9.7487994E2,1.9524641E2,3.7096756E2,1.3868547E3,6.6320953E2,3.116704E2,1.8230197E2,1.2944442E1,6.621187E1,3.0475568E2,1.135156E3,2.5169864E2,1.2874948E2,5.344601E2,2.1540637E2,9.626403E1,1.4826416E2,3.4037827E1,3.2622538E0,6.2949615E1,3.3011955E1,2.717437E2,7.235604E2,4.1159564E2,1.7110579E2,8.059286E1,4.283468E1,8.59148E1,5.222311E2,1.2228994E1,1.23704895E2,9.170147E1,4.921361E1,4.7050415E1,1.3984248E2,8.421671E0,8.070018E0,2.5967808E1,5.5433613E1,7.5160017E0,6.109231E0,2.6902725E1,2.5008907E1,2.4673482E2,6.9897394E2,2.458646E1,1.1060951E2,3.009861E2,1.16697205E2,5.440858E1,4.30828E1,3.751006E1,3.7106247E1,5.7284307E0,7.066092E1,1.5253885E1,9.684392E0,5.125467E2,4.273897E0,7.9550977E0,5.5019566E1,6.868533E1,6.935555E0,8.4765915E1,1.0851668E1,3.8361942E1,7.4981933E0,3.9552223E1,1.273609E2,1.2481582E1,1.7597744E0,6.310243E0,1.1397302E1,1.4570506E1,4.6306024E0,2.885399E0,2.6905515E0,3.4186797E0,2.4930899E1,1.9718268E0,7.926082E0,1.7082825E1,2.3416623E2,1.2568599E1,3.84069E2,3.1490497E2,6.4664125E0,1.8120047E1,9.911837E1,1.1491141E1,1.6700269E2,1.3398343E2,7.4379684E1,4.2317516E1,1.498329E1,3.942529E1,2.688636E1,1.6196444E1,3.0598943E0,3.4450165E1],"tree_param":{"num_deleted":"0","num_feature":"4615","num_nodes":"103","size_leaf_vector":"1"}},{"base_weights":[1.5338407E-2,1.2885489E-1,-3.83686E-1,-1.57284E-1,2.1200344E-1,1.3045941E-1,-4.7272903E-1,-4.212876E-1,5.9189346E-2,-2.0835882E-2,2.7920955E-1,-6.7183815E-2,2.9098755E-1,-5.298985E-1,1.272391E-1,-5.403685E-1,1.1194728E-1,3.0542257E-1,-3.4830347E-1,-4.0059188E-1,8.004672E-2,-1.2366191E-1,3.3342224E-1,5.370835E-1,-1.5702519E-1,-6.295206E-1,-2.5696754E-1,3.824256E-1,-5.342304E-1,-6.762937E-1,-1.17339805E-1,4.9777198E-1,-4.0676215E-1,-1.2374697E-1,5.0160664E-1,-7.043718E-1,-1.1497752E-1,4.536921E-1,-5.1494914E-1,-5.953754E-1,1.3064621E-1,-4.828961E-1,3.101096E-1,4.5525825E-1,1.5836097E-1,-5.624454E-2,6.195725E-1,2.4596666E-1,-5.336761E-1,-6.495864E-1,5.270042E-1,-5.712514E-1,2.0818679E-1,6.6755265E-1,-1.6992691E-1,-7.072662E-2,1.8017843E-2,3.8856696E-2,-7.099997E-2,-6.499978E-2,2.7962929E-2,-6.106507E-3,7.185643E-2,-6.3357525E-2,3.3398643E-2,5.3359877E-2,-3.9530616E-2,-2.4251753E-2,5.8943283E-2,-7.3796585E-2,5.417967E-3,-3.8814515E-2,3.540252E-2,1.8338917E-2,6.354285E-2,-6.8271436E-2,-4.7885478E-3,2.010769E-2,-7.1609005E-2,3.744681E-2,1.362535E-3,3.7974857E-2,-6.0849696E-2,6.9214225E-2,-1.3199921E-2,4.7904935E-2,-6.829105E-2,1.0011072E-2,5.7786953E-2,7.3948674E-2,9.3610864E-4,-2.621685E-2,4.1273817E-2,-6.5627515E-2,3.8344424E-2,6.317151E-2,-6.601491E-2,7.511652E-2,-3.4542054E-2,-6.695283E-2,4.155225E-2,4.9553078E-2,-5.6666564E-2,7.409811E-2,-5.273328E-4,1.5610568E-2,-6.516765E-2],"categories":[],"categories_nodes":[],"categories_segments":[],"categories_sizes":[],"default_left":[0,0,0,0,0,0,0,0,0,0,0,0,0,0,0,0,0,0,0,0,0,0,0,0,0,0,0,0,0,0,0,0,0,0,0,0,0,0,0,0,0,0,0,0,0,0,0,0,0,0,0,0,0,0,0,0,0,0,0,0,0,0,0,0,0,0,0,0,0,0,0,0,0,0,0,0,0,0,0,0,0,0,0,0,0,0,0,0,0,0,0,0,0,0,0,0,0,0,0,0,0,0,0,0,0,0,0],"id":9,"left_children":[1,3,5,7,9,11,13,15,17,19,21,-1,23,25,27,29,31,33,35,37,39,41,43,45,47,49,51,53,55,57,59,61,63,65,67,69,71,73,75,77,79,81,83,85,87,-1,89,91,93,95,97,99,101,103,105,-1,-1,-1,-1,-1,-1,-1,-1,-1,-1,-1,-1,-1,-1,-1,-1,-1,-1,-1,-1,-1,-1,-1,-1,-1,-1,-1,-1,-1,-1,-1,-1,-1,-1,-1,-1,-1,-1,-1,-1,-1,-1,-1,-1,-1,-1,-1,-1,-1,-1,-1,-1],"loss_changes":[1.2461491E2,5.0989155E1,2.7957214E1,2.7616943E1,2.5980545E1,1.1881067E1,1.7889366E1,1.3880478E1,2.6812204E1,1.4311603E1,2.8176178E1,0E0,8.497042E0,1.2742126E1,7.970659E0,1.0160542E1,8.319693E0,1.4075635E1,8.286709E0,7.8927755E0,1.0170965E1,2.4071365E1,2.4150345E1,4.8358965E0,4.3550386E0,8.394714E0,1.8918282E1,5.4340916E0,1.7623816E0,5.1058464E0,9.594638E0,2.9692292E0,3.2107418E0,9.674903E0,7.620863E0,1.0510559E0,8.085977E0,3.6426663E-1,5.421917E0,2.1401849E0,7.857433E0,9.371765E0,1.1940019E1,1.8445175E1,1.1367961E1,0E0,3.3955517E0,1.30544E0,1.9043765E0,5.039139E0,1.5247021E0,7.7464275E0,1.1988753E1,1.1147594E0,2.0335064E0,0E0,0E0,0E0,0E0,0E0,0E0,0E0,0E0,0E0,0E0,0E0,0E0,0E0,0E0,0E0,0E0,0E0,0E0,0E0,0E0,0E0,0E0,0E0,0E0,0E0,0E0,0E0,0E0,0E0,0E0,0E0,0E0,0E0,0E0,0E0,0E0,0E0,0E0,0E0,0E0,0E0,0E0,0E0,0E0,0E0,0E0,0E0,0E0,0E0,0E0,0E0,0E0],"parents":[2147483647,0,0,1,1,2,2,3,3,4,4,5,5,6,6,7,7,8,8,9,9,10,10,12,12,13,13,14,14,15,15,16,16,17,17,18,18,19,19,20,20,21,21,22,22,23,23,24,24,25,25,26,26,27,27,28,28,29,29,30,30,31,31,32,32,33,33,34,34,35,35,36,36,37,37,38,38,39,39,40,40,41,41,42,42,43,43,44,44,46,46,47,47,48,48,49,49,50,50,51,51,52,52,53,53,54,54],"right_children":[2,4,6,8,10,12,14,16,18,20,22,-1,24,26,28,30,32,34,36,38,40,42,44,46,48,50,52,54,56,58,60,62,64,66,68,70,72,74,76,78,80,82,84,86,88,-1,90,92,94,96,98,100,102,104,106,-1,-1,-1,-1,-1,-1,-1,-1,-1,-1,-1,-1,-1,-1,-1,-1,-1,-1,-1,-1,-1,-1,-1,-1,-1,-1,-1,-1,-1,-1,-1,-1,-1,-1,-1,-1,-1,-1,-1,-1,-1,-1,-1,-1,-1,-1,-1,-1,-1,-1,-1,-1],"split_conditions":[1.3053661E-2,3.3914591E-3,-1.6401315E-2,-1.6685355E-3,-3.143639E-1,-1.9999487E-2,4.8E5,5.9383452E-2,-5.0896043E-3,-1.9551575E-2,-2.5673868E-2,-6.7183815E-2,-1.0258523E-2,2.4885999E-2,1.3846122E-3,1E4,-2.2102337E-2,5.7497725E-4,6.970419E-4,-6.908984E-2,-1.7755938E-3,2.6835168E-3,3.351573E-1,-4.7691222E-2,-2.1184618E-2,5.0711453E-2,1.7811231E-2,1.3654805E-2,1.2914922E-2,-2.9885218E-2,2.9565918E-3,-2.2924112E-2,6.412334E-2,-2.9954422E-2,-9.238976E-3,3.544096E-2,6.89158E-3,-2.90259E-2,1.7323025E-2,1.7916426E-3,-4.2097308E-2,-2.8508634E-3,-8.643703E-3,3.6606632E-2,2.6655758E-2,-5.624454E-2,3.1065095E-2,-3.5133265E-2,4.1309316E-2,-5.5235937E-2,-3.8700342E-2,4.6398718E-2,-6.965534E-3,1.1544584E-2,-5.4244123E-2,-7.072662E-2,1.8017843E-2,3.8856696E-2,-7.099997E-2,-6.499978E-2,2.7962929E-2,-6.106507E-3,7.185643E-2,-6.3357525E-2,3.3398643E-2,5.3359877E-2,-3.9530616E-2,-2.4251753E-2,5.8943283E-2,-7.3796585E-2,5.417967E-3,-3.8814515E-2,3.540252E-2,1.8338917E-2,6.354285E-2,-6.8271436E-2,-4.7885478E-3,2.010769E-2,-7.1609005E-2,3.744681E-2,1.362535E-3,3.7974857E-2,-6.0849696E-2,6.9214225E-2,-1.3199921E-2,4.7904935E-2,-6.829105E-2,1.0011072E-2,5.7786953E-2,7.3948674E-2,9.3610864E-4,-2.621685E-2,4.1273817E-2,-6.5627515E-2,3.8344424E-2,6.317151E-2,-6.601491E-2,7.511652E-2,-3.4542054E-2,-6.695283E-2,4.155225E-2,4.9553078E-2,-5.6666564E-2,7.409811E-2,-5.273328E-4,1.5610568E-2,-6.516765E-2],"split_indices":[214,3974,4250,3076,4609,3420,4611,3572,1021,82,2351,0,651,3402,4134,4611,1052,4558,256,1183,3731,1248,4609,323,1803,3146,4484,1291,624,2057,4291,4442,24,1322,3478,12,3552,11,647,816,3138,1546,511,2622,3068,0,3011,1722,188,3505,6,2188,4425,342,171,0,0,0,0,0,0,0,0,0,0,0,0,0,0,0,0,0,0,0,0,0,0,0,0,0,0,0,0,0,0,0,0,0,0,0,0,0,0,0,0,0,0,0,0,0,0,0,0,0,0,0,0],"split_type":[0,0,0,0,0,0,0,0,0,0,0,0,0,0,0,0,0,0,0,0,0,0,0,0,0,0,0,0,0,0,0,0,0,0,0,0,0,0,0,0,0,0,0,0,0,0,0,0,0,0,0,0,0,0,0,0,0,0,0,0,0,0,0,0,0,0,0,0,0,0,0,0,0,0,0,0,0,0,0,0,0,0,0,0,0,0,0,0,0,0,0,0,0,0,0,0,0,0,0,0,0,0,0,0,0,0,0],"sum_hessian":[2.749042E3,2.140717E3,6.083249E2,4.8180194E2,1.6589152E3,8.973258E1,5.185923E2,2.1664406E2,2.651579E2,3.7172903E2,1.287186E3,1.442971E1,7.530287E1,4.7358255E2,4.500973E1,1.7708452E2,3.9559536E1,1.6543933E2,9.9718544E1,7.73997E1,2.9432935E2,1.5251538E2,1.1346707E3,4.8475945E1,2.6826927E1,3.459876E2,1.2759493E2,3.278395E1,1.2225778E1,1.335684E2,4.3516113E1,2.2708754E1,1.6850782E1,5.2016968E1,1.1342237E2,3.8676792E1,6.1041756E1,8.787447E0,6.861225E1,1.9762691E1,2.7456665E2,8.3363464E1,6.915192E1,6.680987E2,4.66572E2,2.9769232E0,4.5499023E1,1.3127898E1,1.369903E1,3.4051794E2,5.469682E0,7.6010185E1,5.158475E1,2.1484821E1,1.129913E1,9.850019E0,2.3757582E0,3.7751055E0,1.2979329E2,1.8310055E1,2.5206059E1,6.6360335E0,1.607272E1,1.3011436E1,3.839346E0,1.492472E1,3.7092247E1,1.1787682E1,1.0163469E2,3.706254E1,1.6142538E0,3.868331E1,2.2358442E1,4.3406053E0,4.4468417E0,5.0140503E1,1.8471745E1,2.5134828E0,1.7249208E1,8.832817E1,1.8623848E2,1.0337892E1,7.3025566E1,3.6793E1,3.2358917E1,6.549867E2,1.3112047E1,4.107733E2,5.5798687E1,3.7849308E1,7.649716E0,3.1025956E0,1.0025302E1,1.2334581E1,1.3644487E0,2.3033657E0,3.3821457E2,4.462164E0,1.0075179E0,6.9418045E1,6.5921345E0,3.7893074E1,1.3691673E1,1.9279472E1,2.2053502E0,7.141771E0,4.1573596E0],"tree_param":{"num_deleted":"0","num_feature":"4615","num_nodes":"107","size_leaf_vector":"1"}},{"base_weights":[2.2790416E-3,-3.549169E-1,1.15457274E-1,-9.022003E-2,-5.082195E-1,-2.0480603E-1,1.9733481E-1,-3.4820175E-1,1.5997063E-1,-5.6380016E-1,1.731933E-1,-4.1985738E-1,1.1742414E-1,2.5075942E-1,-9.2221476E-2,2.0043209E-1,-4.9890625E-1,4.055222E-1,-2.506672E-1,-6.206698E-1,-2.1190964E-2,-4.942044E-1,6.024473E-1,-5.417838E-1,4.8475005E-2,7.594758E-1,-2.3839885E-2,-5.2087104E-1,2.704208E-1,2.0327727E-1,-3.077792E-1,6.9944054E-1,-3.7868068E-1,-3.7619885E-2,-6.429536E-1,5.4059416E-1,-5.6263787E-1,-4.4676453E-1,7.425577E-2,-6.3803816E-1,6.903159E-2,-4.3660206E-1,5.9663296E-1,-6.431257E-2,1.6931606E-2,7.862785E-2,-2.8119648E-1,-6.38898E-1,-1.652068E-1,-7.180746E-2,3.093766E-1,7.767693E-2,1.4785443E-2,2.463539E-1,-3.5017642E-1,4.7614604E-2,-6.558639E-1,3.432799E-1,9.388979E-2,-3.1461766E-1,4.0232822E-1,-5.9816104E-1,-6.9094747E-3,1.8223591E-2,7.4355334E-2,-6.429319E-2,1.6988052E-2,-2.7835166E-2,4.6268135E-2,3.1264734E-2,-6.9329284E-2,6.296698E-2,-5.6824982E-2,1.7199771E-2,-6.884898E-2,4.585111E-2,-5.8568954E-2,3.730463E-2,-6.5864645E-2,1.5351459E-2,-6.804258E-2,6.793129E-2,1.5409826E-2,-5.2660843E-3,-4.039037E-2,-6.596603E-2,2.966312E-2,3.2625724E-2,-6.015986E-2,-3.4191955E-2,5.9790846E-2,3.9558675E-2,-3.218009E-2,-6.024331E-2,-5.4308204E-3,-7.23436E-2,-5.4586823E-3,6.107492E-3,4.459099E-2,-1.5351722E-3,3.2489527E-2,-6.1044246E-2,2.0270148E-2,5.27173E-2,-3.642949E-2,6.928199E-3,-7.033115E-2,1.571907E-2,-7.2891995E-2],"categories":[],"categories_nodes":[],"categories_segments":[],"categories_sizes":[],"default_left":[0,0,0,0,0,0,0,0,0,0,0,0,0,0,0,0,0,0,0,0,0,0,0,0,0,0,0,0,0,0,0,0,0,0,0,0,0,0,0,0,0,0,0,0,0,0,0,0,0,0,0,0,0,0,0,0,0,0,0,0,0,0,0,0,0,0,0,0,0,0,0,0,0,0,0,0,0,0,0,0,0,0,0,0,0,0,0,0,0,0,0,0,0,0,0,0,0,0,0,0,0,0,0,0,0,0,0,0,0],"id":10,"left_children":[1,3,5,7,9,11,13,15,17,19,21,23,25,27,29,31,33,35,37,39,41,43,45,47,49,51,53,55,57,59,61,63,65,67,69,71,73,75,-1,77,-1,79,81,-1,-1,-1,83,85,87,-1,89,-1,-1,91,93,-1,95,97,99,101,103,105,107,-1,-1,-1,-1,-1,-1,-1,-1,-1,-1,-1,-1,-1,-1,-1,-1,-1,-1,-1,-1,-1,-1,-1,-1,-1,-1,-1,-1,-1,-1,-1,-1,-1,-1,-1,-1,-1,-1,-1,-1,-1,-1,-1,-1,-1,-1],"loss_changes":[1.03060265E2,2.4845062E1,5.0804134E1,1.4654498E1,1.4800713E1,2.739675E1,2.388081E1,9.333187E0,1.1748823E1,1.1070221E1,8.904406E0,1.3554012E1,1.4415817E1,1.989824E1,1.5411008E1,7.4253163E0,5.8160763E0,9.806923E0,8.870941E0,7.842102E0,9.271095E0,1.3251388E0,3.2642503E0,6.7716484E0,1.019264E1,1.8827057E-1,1.1644469E1,4.7133684E0,1.6309921E1,1.06658745E1,1.220312E1,1.7617416E-1,1.8657258E0,2.7757342E0,3.4356976E0,6.706831E0,9.8628306E-1,4.9518266E0,0E0,6.9412537E0,0E0,3.2081227E0,4.2724085E-1,0E0,0E0,0E0,8.985764E-2,3.0926971E0,8.754119E0,0E0,7.325345E0,0E0,0E0,6.25721E0,4.4294257E0,0E0,1.147747E0,2.6010513E1,9.407122E0,4.5534854E0,7.3023176E0,5.0379143E0,8.36499E0,0E0,0E0,0E0,0E0,0E0,0E0,0E0,0E0,0E0,0E0,0E0,0E0,0E0,0E0,0E0,0E0,0E0,0E0,0E0,0E0,0E0,0E0,0E0,0E0,0E0,0E0,0E0,0E0,0E0,0E0,0E0,0E0,0E0,0E0,0E0,0E0,0E0,0E0,0E0,0E0,0E0,0E0,0E0,0E0,0E0,0E0],"parents":[2147483647,0,0,1,1,2,2,3,3,4,4,5,5,6,6,7,7,8,8,9,9,10,10,11,11,12,12,13,13,14,14,15,15,16,16,17,17,18,18,19,19,20,20,21,21,22,22,23,23,24,24,25,25,26,26,27,27,28,28,29,29,30,30,31,31,32,32,33,33,34,34,35,35,36,36,37,37,39,39,41,41,42,42,46,46,47,47,48,48,50,50,53,53,54,54,56,56,57,57,58,58,59,59,60,60,61,61,62,62],"right_children":[2,4,6,8,10,12,14,16,18,20,22,24,26,28,30,32,34,36,38,40,42,44,46,48,50,52,54,56,58,60,62,64,66,68,70,72,74,76,-1,78,-1,80,82,-1,-1,-1,84,86,88,-1,90,-1,-1,92,94,-1,96,98,100,102,104,106,108,-1,-1,-1,-1,-1,-1,-1,-1,-1,-1,-1,-1,-1,-1,-1,-1,-1,-1,-1,-1,-1,-1,-1,-1,-1,-1,-1,-1,-1,-1,-1,-1,-1,-1,-1,-1,-1,-1,-1,-1,-1,-1,-1,-1,-1,-1],"split_conditions":[-8.982994E-3,-2.573144E-2,2.3702495E-2,-8.797283E-3,1.7739803E-2,1.370725E-1,1.9894592E-2,2.7160323E-3,5.915054E-3,1.13E4,2.131638E-2,-3.9226464E-3,4.5690835E-1,-1.7694121E-2,-3.7512905E-3,-8.802578E-3,-1.6571403E-2,1.6884552E-2,2.3132674E-2,5.3119645E-2,2.660114E-2,7.1939784E-3,-6.773657E-3,3.2062776E-2,-8.706626E-3,6.420146E-2,-6.469324E-4,-1.8157667E-2,4.5690835E-1,-6.12642E-3,-2.7665913E-2,1.685499E-2,1.2901869E-2,-1.9142885E-2,-2.2719739E-2,4.275731E-2,-3.864736E-2,-7.130919E-2,7.425577E-2,-6.32684E-2,6.903159E-2,-2.5683546E-2,-1.2187591E-2,-6.431257E-2,1.6931606E-2,7.862785E-2,-3.186216E-2,2.6223412E-2,-5.0580796E-2,-7.180746E-2,-1.9945752E-2,7.767693E-2,1.4785443E-2,4.12833E-3,5E4,4.7614604E-2,3.9252687E-2,-3.143639E-1,1.975786E-2,2.671329E-3,4.24701E-3,-1.2881307E-2,-1.3002785E-2,1.8223591E-2,7.4355334E-2,-6.429319E-2,1.6988052E-2,-2.7835166E-2,4.6268135E-2,3.1264734E-2,-6.9329284E-2,6.296698E-2,-5.6824982E-2,1.7199771E-2,-6.884898E-2,4.585111E-2,-5.8568954E-2,3.730463E-2,-6.5864645E-2,1.5351459E-2,-6.804258E-2,6.793129E-2,1.5409826E-2,-5.2660843E-3,-4.039037E-2,-6.596603E-2,2.966312E-2,3.2625724E-2,-6.015986E-2,-3.4191955E-2,5.9790846E-2,3.9558675E-2,-3.218009E-2,-6.024331E-2,-5.4308204E-3,-7.23436E-2,-5.4586823E-3,6.107492E-3,4.459099E-2,-1.5351722E-3,3.2489527E-2,-6.1044246E-2,2.0270148E-2,5.27173E-2,-3.642949E-2,6.928199E-3,-7.033115E-2,1.571907E-2,-7.2891995E-2],"split_indices":[1341,3754,3564,2965,2630,4609,1619,3716,2850,4611,2680,2576,4609,49,1195,1663,536,2153,2927,2795,304,1,1818,1048,1307,3,12,1191,4609,2989,1637,7,884,1052,3697,3028,88,1910,0,3495,0,2309,101,0,0,0,1,474,1310,0,2941,0,0,2619,4611,0,52,4609,1772,1817,144,3581,66,0,0,0,0,0,0,0,0,0,0,0,0,0,0,0,0,0,0,0,0,0,0,0,0,0,0,0,0,0,0,0,0,0,0,0,0,0,0,0,0,0,0,0,0,0,0],"split_type":[0,0,0,0,0,0,0,0,0,0,0,0,0,0,0,0,0,0,0,0,0,0,0,0,0,0,0,0,0,0,0,0,0,0,0,0,0,0,0,0,0,0,0,0,0,0,0,0,0,0,0,0,0,0,0,0,0,0,0,0,0,0,0,0,0,0,0,0,0,0,0,0,0,0,0,0,0,0,0,0,0,0,0,0,0,0,0,0,0,0,0,0,0,0,0,0,0,0,0,0,0,0,0,0,0,0,0,0,0],"sum_hessian":[2.5472915E3,6.12398E2,1.9348934E3,2.2518146E2,3.8721655E2,3.936466E2,1.5412468E3,1.1067167E2,1.1450979E2,3.5817404E2,2.9042513E1,2.359046E2,1.57742E2,1.3012867E3,2.3996008E2,2.3778177E1,8.689349E1,7.166706E1,4.2842728E1,3.2406564E2,3.410841E1,1.1308662E1,1.773385E1,1.8705069E2,4.885392E1,2.7658144E1,1.3008386E2,3.1699888E1,1.2695869E3,1.0123642E2,1.3872366E2,1.2660838E1,1.1117338E1,2.097759E1,6.59159E1,6.3280212E1,8.386852E0,3.6238224E1,6.6045036E0,3.2033505E2,3.730594E0,2.057055E1,1.3537859E1,9.260878E0,2.0477848E0,1.4771092E1,2.9627585E0,1.4814854E2,3.8902134E1,1.1960561E1,3.689336E1,2.6635027E1,1.0231173E0,7.129746E1,5.8786392E1,3.4788597E0,2.8221027E1,8.980095E2,3.7157736E2,2.794582E1,7.32906E1,7.008938E1,6.863428E1,1.3982348E0,1.1262604E1,7.3869076E0,3.730431E0,1.446233E1,6.51526E0,3.0378056E0,6.2878098E1,5.897479E1,4.3054233E0,1.173005E0,7.2138476E0,4.515233E0,3.172299E1,6.057136E0,3.1427792E2,6.122617E0,1.4447933E1,1.0955891E1,2.581968E0,1.5343227E0,1.4284358E0,1.4522054E2,2.9280174E0,1.8415258E1,2.0486876E1,1.1269639E1,2.562372E1,5.670653E1,1.4590934E1,3.117257E1,2.7613823E1,2.5187288E1,3.0337405E0,2.3991176E2,6.580978E2,2.5291057E2,1.18666794E2,1.7664503E1,1.0281316E1,6.329529E1,9.99531E0,9.585634E0,6.050375E1,5.6561207E1,1.2073072E1],"tree_param":{"num_deleted":"0","num_feature":"4615","num_nodes":"109","size_leaf_vector":"1"}},{"base_weights":[-1.7083714E-2,-2.3938161E-1,1.5890355E-1,-9.385616E-3,-4.2990974E-1,2.2827685E-1,-1.5195946E-1,8.19549E-2,-4.6132615E-1,-5.055961E-1,1.4066727E-2,7.2508715E-2,3.5544994E-1,6.488265E-2,-4.75434E-1,1.4584255E-1,-4.3204972E-1,6.276665E-2,-5.9766203E-1,-5.6256557E-1,-9.135194E-2,-6.473237E-1,1.8326776E-1,-2.1797016E-1,1.720377E-1,3.824326E-1,-5.2443653E-1,-2.7217647E-1,3.0247506E-1,4.622399E-1,-5.89684E-1,2.3605792E-2,3.7885523E-1,-6.3294965E-1,1.5485309E-1,4.2505077E-1,-6.2432345E-2,3.8466877E-1,-6.548646E-1,-5.989922E-1,-3.0667335E-2,-4.114174E-1,2.6107064E-1,1.586213E-2,-7.350977E-2,-7.5277716E-2,5.999949E-1,-3.64188E-1,2.8763452E-1,3.2570273E-1,-6.7900755E-2,4.3936333E-1,-4.0382847E-2,3.3890265E-1,-7.0398875E-2,1.1675908E-2,-6.196285E-1,6.1467105E-1,4.7089037E-2,-2.3576756E-1,6.870659E-2,4.581014E-2,-6.3678837E-1,2.1388425E-2,-2.4749333E-2,-4.007864E-2,4.7097716E-2,-6.754268E-2,3.280048E-2,4.905014E-2,-4.0918466E-2,6.024058E-3,6.1107647E-2,1.2167188E-2,4.660766E-2,-6.9706134E-2,-6.457763E-4,4.0017378E-2,-6.1663296E-2,5.355993E-2,-5.6959607E-2,7.426616E-3,-6.29839E-2,6.0496457E-2,-2.6156297E-2,3.5478797E-2,-4.2961925E-2,6.7238435E-2,-4.1862573E-2,4.1034102E-2,-4.6596047E-2,-1.4741627E-2,7.007871E-2,3.845163E-2,-3.368053E-2,4.0230084E-2,-2.654988E-2,-2.9604113E-2,4.6841227E-2,-2.0165564E-2,5.2981015E-2,4.719657E-2,8.162264E-3,4.4959467E-2,-2.7630467E-2,-7.173056E-2,2.0421388E-2,-1.4509886E-2,7.1961306E-2,-2.72704E-2,3.846126E-2,-4.2229537E-2,8.588243E-3,-6.968379E-2,7.740937E-3],"categories":[],"categories_nodes":[],"categories_segments":[],"categories_sizes":[],"default_left":[0,0,0,0,0,0,0,0,0,0,0,0,0,0,0,0,0,0,0,0,0,0,0,0,0,0,0,0,0,0,0,0,0,0,0,0,0,0,0,0,0,0,0,0,0,0,0,0,0,0,0,0,0,0,0,0,0,0,0,0,0,0,0,0,0,0,0,0,0,0,0,0,0,0,0,0,0,0,0,0,0,0,0,0,0,0,0,0,0,0,0,0,0,0,0,0,0,0,0,0,0,0,0,0,0,0,0,0,0,0,0,0,0,0,0],"id":11,"left_children":[1,3,5,7,9,11,13,15,17,19,21,23,25,27,29,31,33,35,37,39,41,43,45,47,49,51,53,55,57,59,61,63,65,67,69,71,-1,73,75,77,79,81,83,-1,-1,85,87,89,91,93,95,97,99,101,-1,103,105,107,109,111,-1,-1,113,-1,-1,-1,-1,-1,-1,-1,-1,-1,-1,-1,-1,-1,-1,-1,-1,-1,-1,-1,-1,-1,-1,-1,-1,-1,-1,-1,-1,-1,-1,-1,-1,-1,-1,-1,-1,-1,-1,-1,-1,-1,-1,-1,-1,-1,-1,-1,-1,-1,-1,-1,-1],"loss_changes":[9.332306E1,4.6183655E1,2.8748718E1,1.9793331E1,1.9377441E1,2.1545788E1,1.7112394E1,1.3164173E1,5.7974033E0,1.1571663E1,9.622934E0,1.4224284E1,1.4427628E1,1.1828248E1,1.0755436E1,1.011947E1,5.3282337E0,4.6329494E0,3.8518581E0,8.366837E0,6.9586563E0,1.3561096E0,7.415627E0,9.395157E0,1.3517943E1,1.4027016E1,3.0678158E0,6.0400095E0,6.868035E0,1.9177837E0,4.6183987E0,1.213956E1,8.971916E0,1.5784693E0,2.4943638E0,7.8321695E-1,0E0,3.2256603E-2,1.662035E0,7.3850555E0,9.091992E0,3.4646797E0,5.4638824E0,0E0,0E0,6.7211494E0,2.2210054E0,7.909733E0,5.2706594E0,8.830523E0,1.346092E1,1.1098022E1,6.5419674E0,9.216151E-2,0E0,4.4936385E0,2.3611708E0,3.2011766E0,5.3575554E0,2.44474E-1,0E0,0E0,3.6698074E0,0E0,0E0,0E0,0E0,0E0,0E0,0E0,0E0,0E0,0E0,0E0,0E0,0E0,0E0,0E0,0E0,0E0,0E0,0E0,0E0,0E0,0E0,0E0,0E0,0E0,0E0,0E0,0E0,0E0,0E0,0E0,0E0,0E0,0E0,0E0,0E0,0E0,0E0,0E0,0E0,0E0,0E0,0E0,0E0,0E0,0E0,0E0,0E0,0E0,0E0,0E0,0E0],"parents":[2147483647,0,0,1,1,2,2,3,3,4,4,5,5,6,6,7,7,8,8,9,9,10,10,11,11,12,12,13,13,14,14,15,15,16,16,17,17,18,18,19,19,20,20,21,21,22,22,23,23,24,24,25,25,26,26,27,27,28,28,29,29,30,30,31,31,32,32,33,33,34,34,35,35,37,37,38,38,39,39,40,40,41,41,42,42,45,45,46,46,47,47,48,48,49,49,50,50,51,51,52,52,53,53,55,55,56,56,57,57,58,58,59,59,62,62],"right_children":[2,4,6,8,10,12,14,16,18,20,22,24,26,28,30,32,34,36,38,40,42,44,46,48,50,52,54,56,58,60,62,64,66,68,70,72,-1,74,76,78,80,82,84,-1,-1,86,88,90,92,94,96,98,100,102,-1,104,106,108,110,112,-1,-1,114,-1,-1,-1,-1,-1,-1,-1,-1,-1,-1,-1,-1,-1,-1,-1,-1,-1,-1,-1,-1,-1,-1,-1,-1,-1,-1,-1,-1,-1,-1,-1,-1,-1,-1,-1,-1,-1,-1,-1,-1,-1,-1,-1,-1,-1,-1,-1,-1,-1,-1,-1,-1],"split_conditions":[-5.8347136E-3,-2.5734138E-2,-8.662756E-3,-1.3575387E-3,1.13E4,2.1454727E-2,-1.25794E-3,9.5166E-3,-3.600238E-2,2.7683888E-2,-2.571457E-3,-6.9125635E-3,-9.975174E-4,-5.1722927E-3,-3.7278388E-2,-3.8344534E-3,1.0514734E-2,-3.692496E-3,-6.0741223E-2,1.5295361E-2,1.4693161E-2,-1.2274693E-2,8.133022E-3,1.7353244E-2,1.2234554E-2,1.0900539E-2,-3.060362E-2,7.564516E-3,-1.3377326E-2,-2.4651192E-2,-5.120444E-2,1.0350072E-2,-3.0322006E-2,5.896951E-2,-9.905202E-4,-1.9891052E-2,-6.2432345E-2,-4.1887388E-2,9.317431E-3,-3.5217684E-2,-1.5838448E-2,1.3174121E-2,-6.9222734E-3,1.586213E-2,-7.350977E-2,-3.713497E-2,3.844836E-2,-2.6394458E-2,1.6466228E-2,1.5935473E-2,-2.98869E-2,-2.6067854E-3,-8.26527E-3,-6.0071303E-3,-7.0398875E-2,3.4881239E-3,1.2217921E-2,-2.0136587E-2,9.641143E-3,-3.324202E-2,6.870659E-2,4.581014E-2,3.0622559E-2,2.1388425E-2,-2.4749333E-2,-4.007864E-2,4.7097716E-2,-6.754268E-2,3.280048E-2,4.905014E-2,-4.0918466E-2,6.024058E-3,6.1107647E-2,1.2167188E-2,4.660766E-2,-6.9706134E-2,-6.457763E-4,4.0017378E-2,-6.1663296E-2,5.355993E-2,-5.6959607E-2,7.426616E-3,-6.29839E-2,6.0496457E-2,-2.6156297E-2,3.5478797E-2,-4.2961925E-2,6.7238435E-2,-4.1862573E-2,4.1034102E-2,-4.6596047E-2,-1.4741627E-2,7.007871E-2,3.845163E-2,-3.368053E-2,4.0230084E-2,-2.654988E-2,-2.9604113E-2,4.6841227E-2,-2.0165564E-2,5.2981015E-2,4.719657E-2,8.162264E-3,4.4959467E-2,-2.7630467E-2,-7.173056E-2,2.0421388E-2,-1.4509886E-2,7.1961306E-2,-2.72704E-2,3.846126E-2,-4.2229537E-2,8.588243E-3,-6.968379E-2,7.740937E-3],"split_indices":[513,3754,584,3717,4611,4287,2831,4250,4023,4606,2603,4365,4023,1718,1322,4459,308,2825,876,3597,3874,19,1954,957,957,1371,51,1584,2389,1,2422,2227,2715,489,616,106,0,1,3640,2928,4329,47,135,0,0,4325,36,3736,696,357,605,254,506,0,0,2765,73,2237,608,0,0,0,2986,0,0,0,0,0,0,0,0,0,0,0,0,0,0,0,0,0,0,0,0,0,0,0,0,0,0,0,0,0,0,0,0,0,0,0,0,0,0,0,0,0,0,0,0,0,0,0,0,0,0,0,0],"split_type":[0,0,0,0,0,0,0,0,0,0,0,0,0,0,0,0,0,0,0,0,0,0,0,0,0,0,0,0,0,0,0,0,0,0,0,0,0,0,0,0,0,0,0,0,0,0,0,0,0,0,0,0,0,0,0,0,0,0,0,0,0,0,0,0,0,0,0,0,0,0,0,0,0,0,0,0,0,0,0,0,0,0,0,0,0,0,0,0,0,0,0,0,0,0,0,0,0,0,0,0,0,0,0,0,0,0,0,0,0,0,0,0,0,0,0],"sum_hessian":[2.383489E3,1.0530151E3,1.3304739E3,4.7756808E2,5.754471E2,1.087949E3,2.4252492E2,3.9795676E2,7.961133E1,4.9151743E2,8.392964E1,4.8970425E2,5.982447E2,1.4567241E2,9.685251E1,3.5459857E2,4.3358192E1,1.6545994E1,6.306534E1,4.3177847E2,5.973893E1,1.6521793E1,6.740785E1,1.24667564E2,3.6503668E2,5.809933E2,1.7251413E1,6.016877E1,8.550364E1,1.0188389E1,8.666412E1,2.3330814E2,1.2129044E2,3.224284E1,1.1115353E1,1.1083393E1,5.4625998E0,3.1552956E0,5.991004E1,4.0398566E2,2.7792824E1,3.1218924E1,2.8520004E1,1.543366E0,1.4978427E1,4.2104668E1,2.5303183E1,9.69189E1,2.7748665E1,2.2230641E2,1.4273027E2,5.1201324E2,6.898004E1,2.8173394E0,1.4434074E1,3.364706E1,2.652171E1,3.783973E1,4.766391E1,2.470297E0,7.7180915E0,3.3530865E0,8.3311035E1,1.3721266E2,9.609547E1,1.2463062E1,1.0882738E2,3.1162493E1,1.0803475E0,7.050254E0,4.0650992E0,4.190109E0,6.8932843E0,1.3354794E0,1.8198162E0,5.6179012E1,3.731027E0,6.632596E0,3.9735306E2,1.3555685E1,1.4237138E1,9.889209E0,2.1329716E1,1.7106419E1,1.1413587E1,1.9019442E1,2.3085228E1,2.3941648E1,1.3615338E0,1.0903905E1,8.6015E1,1.3829429E1,1.3919236E1,2.0456586E2,1.7740553E1,4.192653E1,1.0080375E2,1.9107048E1,4.9290622E2,5.427523E1,1.4704812E1,1.3069515E0,1.5103878E0,1.3125904E1,2.0521156E1,2.3826134E1,2.6955776E0,4.545816E0,3.3293915E1,2.4573412E1,2.3090498E1,1.3655176E0,1.1047796E0,7.687197E1,6.4390645E0],"tree_param":{"num_deleted":"0","num_feature":"4615","num_nodes":"115","size_leaf_vector":"1"}},{"base_weights":[-1.5111234E-4,1.2606677E-1,-3.1113905E-1,1.6979949E-1,-3.1509557E-1,-4.0005E-1,2.4182084E-1,-8.507321E-2,2.3094632E-1,-4.6059382E-1,1.8820822E-1,-5.074004E-1,-7.780225E-2,-2.37251E-1,4.3505377E-1,-3.7982538E-1,3.6188383E-2,3.2713678E-1,6.666259E-2,3.3041832E-1,-5.6023216E-1,-4.9678576E-1,4.9608603E-1,1.7832445E-1,-5.463829E-1,3.4319478E-1,-2.764495E-1,3.753283E-1,-4.7529337E-1,1.1459239E-1,6.614654E-1,-4.855442E-1,4.2869303E-1,-5.7866055E-1,8.403301E-2,-2.0703737E-1,3.8001704E-1,-3.723447E-1,1.1064519E-1,6.3096875E-1,-5.084697E-2,-5.967417E-1,5.1795077E-2,-6.374546E-2,6.654429E-3,-8.184055E-3,7.314292E-2,8.4004425E-2,-2.913035E-1,-1.4782128E-1,-5.982769E-1,6.493456E-1,-4.5901004E-2,5.1666114E-2,-4.8588583E-1,4.6054626E-1,-1.0127506E-2,2.834021E-2,-6.2756944E-1,-2.720312E-1,5.2677745E-1,1.8185519E-2,7.106949E-2,-5.6245983E-2,3.9326232E-2,-4.6992986E-3,6.0881544E-2,-7.3972486E-2,2.6860638E-2,1.8355303E-2,-1.8964719E-2,2.4190662E-2,-5.327013E-2,3.8837574E-3,4.382915E-2,4.3033957E-3,-6.928372E-2,-2.5894752E-2,1.5523364E-2,1.48209855E-2,7.211459E-2,-1.4164192E-2,-6.701412E-2,1.0236887E-2,-3.747884E-2,-4.8987463E-2,4.2667817E-2,2.8256742E-2,-5.5906493E-2,1.897685E-2,-6.2470056E-2,7.383837E-2,-4.5785323E-2,-4.8251655E-2,2.3129707E-2,3.191513E-2,-5.7986595E-2,-4.742883E-3,-6.1340373E-2,2.2258392E-2,5.3731766E-2,-6.763961E-2,-1.2103901E-2,-5.4093994E-2,5.931723E-4,6.9930516E-2,1.0115917E-2],"categories":[],"categories_nodes":[],"categories_segments":[],"categories_sizes":[],"default_left":[0,0,0,0,0,0,0,0,0,0,0,0,0,0,0,0,0,0,0,0,0,0,0,0,0,0,0,0,0,0,0,0,0,0,0,0,0,0,0,0,0,0,0,0,0,0,0,0,0,0,0,0,0,0,0,0,0,0,0,0,0,0,0,0,0,0,0,0,0,0,0,0,0,0,0,0,0,0,0,0,0,0,0,0,0,0,0,0,0,0,0,0,0,0,0,0,0,0,0,0,0,0,0,0,0,0,0],"id":12,"left_children":[1,3,5,7,9,11,13,15,17,19,21,23,25,27,29,31,33,35,37,39,41,43,45,47,49,51,53,55,57,59,61,63,65,67,69,71,73,75,77,79,-1,81,-1,-1,-1,83,-1,-1,85,87,89,91,93,95,97,99,-1,-1,101,103,105,-1,-1,-1,-1,-1,-1,-1,-1,-1,-1,-1,-1,-1,-1,-1,-1,-1,-1,-1,-1,-1,-1,-1,-1,-1,-1,-1,-1,-1,-1,-1,-1,-1,-1,-1,-1,-1,-1,-1,-1,-1,-1,-1,-1,-1,-1],"loss_changes":[8.931932E1,3.1281466E1,3.2393948E1,2.2979984E1,1.080252E1,1.9550964E1,8.5846615E0,1.0228626E1,1.8759056E1,9.154732E0,7.316844E0,1.1447876E1,1.2028253E1,4.112649E0,4.686734E0,7.33609E0,6.0321608E0,2.1245087E1,8.539846E0,3.6894207E0,4.3023624E0,9.058175E-1,2.8103323E0,7.5768805E0,8.226501E0,5.5321636E0,6.7253585E0,3.7599266E-1,2.4735975E0,4.666737E0,7.739773E-1,5.2378407E0,9.003496E-1,2.2199917E0,5.1986227E0,1.0091923E1,1.3546112E1,5.3961434E0,6.645806E0,3.4076595E-1,0E0,3.1982994E0,0E0,0E0,0E0,3.8318875E-1,0E0,0E0,2.2823682E0,8.590364E0,7.5185776E0,2.8930292E0,2.6863866E0,6.754858E0,3.303772E0,9.366274E-3,0E0,0E0,3.351307E-1,1.1472871E0,9.63083E-1,0E0,0E0,0E0,0E0,0E0,0E0,0E0,0E0,0E0,0E0,0E0,0E0,0E0,0E0,0E0,0E0,0E0,0E0,0E0,0E0,0E0,0E0,0E0,0E0,0E0,0E0,0E0,0E0,0E0,0E0,0E0,0E0,0E0,0E0,0E0,0E0,0E0,0E0,0E0,0E0,0E0,0E0,0E0,0E0,0E0,0E0],"parents":[2147483647,0,0,1,1,2,2,3,3,4,4,5,5,6,6,7,7,8,8,9,9,10,10,11,11,12,12,13,13,14,14,15,15,16,16,17,17,18,18,19,19,20,20,21,21,22,22,23,23,24,24,25,25,26,26,27,27,28,28,29,29,30,30,31,31,32,32,33,33,34,34,35,35,36,36,37,37,38,38,39,39,41,41,45,45,48,48,49,49,50,50,51,51,52,52,53,53,54,54,55,55,58,58,59,59,60,60],"right_children":[2,4,6,8,10,12,14,16,18,20,22,24,26,28,30,32,34,36,38,40,42,44,46,48,50,52,54,56,58,60,62,64,66,68,70,72,74,76,78,80,-1,82,-1,-1,-1,84,-1,-1,86,88,90,92,94,96,98,100,-1,-1,102,104,106,-1,-1,-1,-1,-1,-1,-1,-1,-1,-1,-1,-1,-1,-1,-1,-1,-1,-1,-1,-1,-1,-1,-1,-1,-1,-1,-1,-1,-1,-1,-1,-1,-1,-1,-1,-1,-1,-1,-1,-1,-1,-1,-1,-1,-1,-1],"split_conditions":[1.2680529E-2,-1.3282363E-2,1.08799E5,-3.143639E-1,2.5073448E-2,1E0,1.8458503E-3,-2.160103E-3,4.5690835E-1,-3.4142632E-2,-9.333021E-3,-3.4465205E-2,2.83991E-3,2.2845687E-2,-1.2055178E-2,2.9130965E-2,-3.5071872E-2,6.69023E-3,-3.5379898E-2,-3.1157251E-2,4.4756282E-2,2.2607036E-2,1.3632443E-2,-7.3198364E-3,-8.182115E-3,-3.877755E-4,4.3965518E-3,2.2538472E-2,-7.3961425E-3,-1.852217E-2,-3.276173E-2,5.5899803E-2,-2.5844872E-2,4.2679064E-2,5.123875E-2,1.2184529E-2,-9.684007E-3,-3.3318389E-3,-2.6655842E-2,4.5739245E-3,-5.084697E-2,-7.6548755E-3,5.1795077E-2,-6.374546E-2,6.654429E-3,-1.18432455E-2,7.314292E-2,8.4004425E-2,4.5081336E-2,-9.03699E-3,-5.9741475E-2,-1.2349697E-3,1.16502615E-2,5.207832E-3,-3.1039326E-2,2.093543E-2,-1.0127506E-2,2.834021E-2,1.4314581E-2,1.0129074E-2,1.6362734E-2,1.8185519E-2,7.106949E-2,-5.6245983E-2,3.9326232E-2,-4.6992986E-3,6.0881544E-2,-7.3972486E-2,2.6860638E-2,1.8355303E-2,-1.8964719E-2,2.4190662E-2,-5.327013E-2,3.8837574E-3,4.382915E-2,4.3033957E-3,-6.928372E-2,-2.5894752E-2,1.5523364E-2,1.48209855E-2,7.211459E-2,-1.4164192E-2,-6.701412E-2,1.0236887E-2,-3.747884E-2,-4.8987463E-2,4.2667817E-2,2.8256742E-2,-5.5906493E-2,1.897685E-2,-6.2470056E-2,7.383837E-2,-4.5785323E-2,-4.8251655E-2,2.3129707E-2,3.191513E-2,-5.7986595E-2,-4.742883E-3,-6.1340373E-2,2.2258392E-2,5.3731766E-2,-6.763961E-2,-1.2103901E-2,-5.4093994E-2,5.931723E-4,6.9930516E-2,1.0115917E-2],"split_indices":[116,4035,4611,4609,4305,4614,3974,4480,4609,847,3870,3989,3581,279,1810,3071,146,2021,2437,963,3731,151,2388,2530,3924,1583,3453,203,4361,1063,314,3504,4,63,500,3708,151,841,3727,2,0,2146,0,0,0,11,0,0,1603,3280,1663,3862,3668,836,713,2,0,0,9,2152,163,0,0,0,0,0,0,0,0,0,0,0,0,0,0,0,0,0,0,0,0,0,0,0,0,0,0,0,0,0,0,0,0,0,0,0,0,0,0,0,0,0,0,0,0,0,0],"split_type":[0,0,0,0,0,0,0,0,0,0,0,0,0,0,0,0,0,0,0,0,0,0,0,0,0,0,0,0,0,0,0,0,0,0,0,0,0,0,0,0,0,0,0,0,0,0,0,0,0,0,0,0,0,0,0,0,0,0,0,0,0,0,0,0,0,0,0,0,0,0,0,0,0,0,0,0,0,0,0,0,0,0,0,0,0,0,0,0,0,0,0,0,0,0,0,0,0,0,0,0,0,0,0,0,0,0,0],"sum_hessian":[2.2735225E3,1.6175973E3,6.559251E2,1.4722657E3,1.4533154E2,5.653056E2,9.061953E1,2.8479398E2,1.1874718E3,1.128058E2,3.252575E1,4.236129E2,1.4169269E2,2.5980267E1,6.463926E1,8.2391525E1,2.0240244E2,7.483253E2,4.391465E2,1.2360635E1,1.0044517E2,9.895587E0,2.2630163E1,2.2594166E1,4.0101874E2,4.5190952E1,9.650174E1,7.109058E0,1.8871208E1,2.7384941E1,3.725432E1,7.321736E1,9.174162E0,1.3811894E1,1.8859055E2,6.714451E1,6.811808E2,3.931023E1,3.9983627E2,9.282737E0,3.0778975E0,9.758719E1,2.8579726E0,7.8130193E0,2.0825677E0,7.507996E0,1.5122168E1,9.051537E0,1.3542629E1,4.6642082E1,3.5437668E2,2.4916857E1,2.0274096E1,3.7891666E1,5.861007E1,6.0593247E0,1.0497329E0,3.0105298E0,1.586068E1,1.4306077E1,1.3078865E1,3.9049497E0,3.334937E1,6.76559E1,5.5614643E0,2.7227488E0,6.451413E0,1.1712325E1,2.0995686E0,1.3854126E2,5.0049294E1,2.8337307E1,3.88072E1,9.961735E1,5.815635E2,1.7497751E1,2.1812477E1,4.2526604E1,3.5730966E2,1.8771331E0,7.4056034E0,1.3960095E1,8.36271E1,6.322233E0,1.185763E0,1.0857494E1,2.6851354E0,2.2943432E1,2.369865E1,1.1296403E1,3.4308026E2,2.3370564E1,1.5462931E0,7.585484E0,1.2688612E1,2.6965204E1,1.0926463E1,1.3514344E1,4.5095726E1,2.429158E0,3.6301668E0,1.4160351E1,1.7003287E0,6.790591E0,7.5154862E0,8.848872E0,4.2299924E0],"tree_param":{"num_deleted":"0","num_feature":"4615","num_nodes":"107","size_leaf_vector":"1"}},{"base_weights":[4.8052226E-3,1.0742772E-1,-3.6502573E-1,1.629559E-1,-2.3382333E-1,-4.8285353E-1,-7.4360356E-2,1.8826461E-1,-3.8499513E-1,1.162673E-1,-4.2876908E-1,5.267506E-1,-5.074218E-1,-3.1080276E-1,2.7398998E-1,-1.7678753E-1,2.1945453E-1,-6.2826526E-1,2.1729115E-1,3.8736773E-1,-2.7719685E-1,-4.6632794E-1,4.7768688E-1,7.432173E-2,-3.8951434E-2,-5.317813E-1,4.479125E-1,1.4660238E-1,-5.446992E-1,4.5145047E-1,-4.9798208E-1,-3.0902717E-1,3.2747957E-1,-5.343766E-1,2.3510183E-1,-6.8359935E-1,4.7248673E-2,-2.4292183E-1,5.547575E-1,-4.9764338E-1,5.3886163E-1,8.0327556E-2,-6.034994E-1,-1.7564498E-1,-5.6259847E-1,6.603781E-2,-4.399844E-3,1.7260924E-1,-5.5715877E-1,-4.2501446E-2,7.234434E-2,-6.125279E-2,4.4653988E-1,2.7933317E-1,-6.067672E-1,6.452406E-1,-6.540994E-2,2.4363225E-2,-6.0801614E-2,-3.799224E-2,5.660866E-2,6.5572254E-2,-1.6381487E-2,-7.290491E-2,2.0185633E-2,-3.8570177E-2,2.5273954E-2,-9.023965E-3,-7.022807E-2,-1.704106E-3,-5.4697063E-2,1.9594079E-2,5.974218E-2,-8.126999E-3,-5.8348138E-2,6.4753346E-2,-1.5554646E-2,3.3311915E-2,-5.4957088E-2,-9.826834E-3,-6.604498E-2,-6.337424E-2,4.6252077E-3,-5.984334E-2,2.3823248E-2,5.898855E-2,-4.178718E-2,4.1872703E-2,-5.732562E-2,-2.2349665E-2,6.395821E-2,5.153629E-2,-1.3762328E-2,-5.615234E-3,-6.4827785E-2,-5.0282158E-2,7.50926E-2,2.6068578E-2,-5.458466E-2],"categories":[],"categories_nodes":[],"categories_segments":[],"categories_sizes":[],"default_left":[0,0,0,0,0,0,0,0,0,0,0,0,0,0,0,0,0,0,0,0,0,0,0,0,0,0,0,0,0,0,0,0,0,0,0,0,0,0,0,0,0,0,0,0,0,0,0,0,0,0,0,0,0,0,0,0,0,0,0,0,0,0,0,0,0,0,0,0,0,0,0,0,0,0,0,0,0,0,0,0,0,0,0,0,0,0,0,0,0,0,0,0,0,0,0,0,0,0,0],"id":13,"left_children":[1,3,5,7,9,11,13,15,17,19,21,23,25,27,29,31,33,35,37,39,41,43,45,-1,-1,47,49,51,53,55,57,59,61,63,65,67,-1,69,71,73,75,77,79,81,83,-1,-1,85,87,-1,-1,-1,89,91,93,95,97,-1,-1,-1,-1,-1,-1,-1,-1,-1,-1,-1,-1,-1,-1,-1,-1,-1,-1,-1,-1,-1,-1,-1,-1,-1,-1,-1,-1,-1,-1,-1,-1,-1,-1,-1,-1,-1,-1,-1,-1,-1,-1],"loss_changes":[8.18761E1,3.2036903E1,1.6012753E1,2.0221745E1,1.620679E1,8.533272E0,1.1315259E1,1.585918E1,9.583119E0,9.223386E0,5.407032E0,1.9570377E0,7.821007E0,8.819204E0,7.849743E0,7.431426E0,1.5230164E1,3.1358643E0,3.131001E0,7.1080117E0,4.183613E0,4.0070972E0,6.535512E-1,0E0,0E0,5.784149E0,2.386674E0,6.745922E0,2.9447308E0,4.6276293E0,1.0358708E0,5.6499786E0,3.8686209E0,3.9230819E0,1.3841309E1,4.2856407E-1,0E0,5.9898925E-1,5.799651E-2,2.3765624E-1,3.4240427E0,3.016815E0,4.717021E-1,3.8876753E0,3.2925797E0,0E0,0E0,3.1610105E0,5.06855E0,0E0,0E0,0E0,2.8532457E0,5.123674E-1,1.1241436E0,4.4286575E0,2.240373E0,0E0,0E0,0E0,0E0,0E0,0E0,0E0,0E0,0E0,0E0,0E0,0E0,0E0,0E0,0E0,0E0,0E0,0E0,0E0,0E0,0E0,0E0,0E0,0E0,0E0,0E0,0E0,0E0,0E0,0E0,0E0,0E0,0E0,0E0,0E0,0E0,0E0,0E0,0E0,0E0,0E0,0E0],"parents":[2147483647,0,0,1,1,2,2,3,3,4,4,5,5,6,6,7,7,8,8,9,9,10,10,11,11,12,12,13,13,14,14,15,15,16,16,17,17,18,18,19,19,20,20,21,21,22,22,25,25,26,26,27,27,28,28,29,29,30,30,31,31,32,32,33,33,34,34,35,35,37,37,38,38,39,39,40,40,41,41,42,42,43,43,44,44,47,47,48,48,52,52,53,53,54,54,55,55,56,56],"right_children":[2,4,6,8,10,12,14,16,18,20,22,24,26,28,30,32,34,36,38,40,42,44,46,-1,-1,48,50,52,54,56,58,60,62,64,66,68,-1,70,72,74,76,78,80,82,84,-1,-1,86,88,-1,-1,-1,90,92,94,96,98,-1,-1,-1,-1,-1,-1,-1,-1,-1,-1,-1,-1,-1,-1,-1,-1,-1,-1,-1,-1,-1,-1,-1,-1,-1,-1,-1,-1,-1,-1,-1,-1,-1,-1,-1,-1,-1,-1,-1,-1,-1,-1],"split_conditions":[1.3053661E-2,-1.7630167E-2,1.4769382E-2,1.4577765E-2,-2.819596E-2,-2.5816586E-2,1.6205829E-2,-3.320493E-2,1.5E4,3.771822E-3,4.3999597E-2,4.9886297E-2,5.6353103E-2,1.564785E-2,1.3373888E-2,2.5217054E-2,-4.4054434E-2,7.44197E-2,3.2334945E-5,2.8791474E-3,1.843793E-2,-1.2948731E-2,-1.0549883E-2,7.432173E-2,-3.8951434E-2,-4.6278816E-2,1.9865349E-2,1.0152354E-2,-1.8417152E-2,-1.9066279E-3,-4.9769137E-2,2.2122415E-2,-1.900145E-2,1.3812636E-2,1.3195207E-2,-3.648316E-2,4.7248673E-2,-3.1119587E-2,-3.6370024E-2,-5.2636825E-2,2.824149E-2,-7.272478E-3,-2.0993333E-2,-1.9612717E-2,2.935579E-2,6.603781E-2,-4.399844E-3,-4.580224E-2,-4.500387E-2,-4.2501446E-2,7.234434E-2,-6.125279E-2,-1.44208595E-2,-2.1547342E-2,-2.2656431E-2,-1.1300542E-2,2.3770394E-2,2.4363225E-2,-6.0801614E-2,-3.799224E-2,5.660866E-2,6.5572254E-2,-1.6381487E-2,-7.290491E-2,2.0185633E-2,-3.8570177E-2,2.5273954E-2,-9.023965E-3,-7.022807E-2,-1.704106E-3,-5.4697063E-2,1.9594079E-2,5.974218E-2,-8.126999E-3,-5.8348138E-2,6.4753346E-2,-1.5554646E-2,3.3311915E-2,-5.4957088E-2,-9.826834E-3,-6.604498E-2,-6.337424E-2,4.6252077E-3,-5.984334E-2,2.3823248E-2,5.898855E-2,-4.178718E-2,4.1872703E-2,-5.732562E-2,-2.2349665E-2,6.395821E-2,5.153629E-2,-1.3762328E-2,-5.615234E-3,-6.4827785E-2,-5.0282158E-2,7.50926E-2,2.6068578E-2,-5.458466E-2],"split_indices":[214,4035,2888,3790,4208,235,4252,2557,4611,3025,313,225,3624,1441,2803,3067,1940,24,2449,3180,3563,2273,1,0,0,702,59,3503,4261,4161,13,158,1509,4554,3263,208,0,92,0,0,1443,4377,22,2185,469,0,0,9,2841,0,0,0,2426,4,1304,2603,2110,0,0,0,0,0,0,0,0,0,0,0,0,0,0,0,0,0,0,0,0,0,0,0,0,0,0,0,0,0,0,0,0,0,0,0,0,0,0,0,0,0,0],"split_type":[0,0,0,0,0,0,0,0,0,0,0,0,0,0,0,0,0,0,0,0,0,0,0,0,0,0,0,0,0,0,0,0,0,0,0,0,0,0,0,0,0,0,0,0,0,0,0,0,0,0,0,0,0,0,0,0,0,0,0,0,0,0,0,0,0,0,0,0,0,0,0,0,0,0,0,0,0,0,0,0,0,0,0,0,0,0,0,0,0,0,0,0,0,0,0,0,0,0,0],"sum_hessian":[2.1552708E3,1.6876757E3,4.6759497E2,1.4519393E3,2.3573627E2,3.3224905E2,1.3534592E2,1.3884655E3,6.3473896E1,8.446127E1,1.51275E2,7.407469E0,3.2484158E2,8.0687294E1,5.4658627E1,1.08924644E2,1.2795409E3,4.5181465E1,1.8292433E1,5.0015575E1,3.4445698E1,1.4572256E2,5.5524426E0,6.1446614E0,1.2628077E0,3.1719693E2,7.6446624E0,2.7426182E1,5.3261112E1,4.4779858E1,9.87877E0,8.6601364E1,2.2323277E1,2.5345278E1,1.2541956E3,4.337976E1,1.8017023E0,7.857324E0,1.0435108E1,6.9762373E0,4.3039337E1,1.67962E1,1.7649498E1,3.6957165E1,1.08765396E2,3.9154272E0,1.6370153E0,1.0828688E1,3.0636826E2,1.7038999E0,5.9407625E0,7.4721847E0,1.9953997E1,3.4855494E0,4.9775562E1,3.2388004E1,1.23918495E1,1.1194798E0,8.759291E0,8.0634796E1,5.9665747E0,1.3181672E1,9.141605E0,2.0052748E1,5.2925296E0,3.407216E1,1.2201234E3,1.5020442E0,4.187772E1,5.114075E0,2.743249E0,1.7032213E0,8.731887E0,1.5251229E0,5.4511147E0,3.7273678E1,5.765662E0,1.2322195E1,4.4740043E0,2.0640378E0,1.558546E1,1.1454269E1,2.5502895E1,1.04348816E2,4.416576E0,6.3455067E0,4.483181E0,4.5657043E0,3.0180255E2,4.427764E0,1.5526233E1,2.074953E0,1.4105961E0,3.6544232E0,4.612114E1,2.4134054E0,2.9974602E1,7.654063E0,4.737787E0],"tree_param":{"num_deleted":"0","num_feature":"4615","num_nodes":"99","size_leaf_vector":"1"}},{"base_weights":[-4.626872E-3,1.1546431E-1,-2.8460613E-1,1.7541094E-1,-2.202197E-1,-7.526173E-2,-4.736001E-1,-3.1284803E-1,2.0217758E-1,-4.3452516E-1,1.4010994E-1,-2.3268409E-1,2.2187562E-1,5.5334426E-2,-5.2935874E-1,-4.3473393E-1,4.249157E-1,1.2862948E-3,2.5681895E-1,-5.1667416E-1,1.9088449E-1,2.7552688E-1,-6.435546E-2,2.7810961E-2,-5.0251555E-1,-8.2838E-2,4.966666E-1,4.962088E-1,-4.2772838E-1,2.6742378E-1,-5.589541E-1,-4.458468E-2,-5.8767647E-1,6.321141E-2,-4.10303E-2,5.9923083E-2,-4.7426742E-1,3.5888797E-1,8.909333E-2,-6.464091E-1,-2.6383466E-1,-5.4851104E-2,4.5057958E-1,-2.5699115E-1,3.9525008E-1,4.2883155E-1,-2.8242916E-1,2.0109501E-1,-5.904343E-1,-4.479742E-1,2.015841E-1,6.160469E-1,-9.163503E-2,-4.6825025E-2,6.9679755E-1,-6.37173E-2,-3.1280853E-2,-2.2082137E-1,6.265493E-2,-5.788417E-1,2.254054E-1,5.2396305E-2,-2.498306E-2,-6.477662E-2,4.257176E-2,2.4343943E-2,-7.482561E-3,3.3633053E-2,-6.1106145E-2,-2.9645963E-2,4.146058E-2,-1.4481844E-2,1.756594E-2,1.3560056E-2,-6.803568E-2,2.9200468E-2,-3.934608E-2,6.883029E-2,1.110768E-2,1.4308286E-2,-5.9167024E-2,-1.7081136E-2,5.2902818E-2,5.83233E-2,-4.7244914E-2,-4.0763605E-2,6.816055E-2,6.612983E-2,-4.151841E-2,-6.197801E-2,1.826974E-2,3.977054E-3,-6.0643382E-2,5.6146473E-2,-5.63711E-3,6.728061E-2,-4.2883325E-2,3.253617E-2,-4.6581052E-2,2.1087278E-2,7.4139155E-2,-1.4617217E-2,1.588447E-2,-2.6700534E-3,-2.7764758E-2,-5.9225984E-2,1.7787693E-2,5.7437923E-2,-4.5242738E-2],"categories":[],"categories_nodes":[],"categories_segments":[],"categories_sizes":[],"default_left":[0,0,0,0,0,0,0,0,0,0,0,0,0,0,0,0,0,0,0,0,0,0,0,0,0,0,0,0,0,0,0,0,0,0,0,0,0,0,0,0,0,0,0,0,0,0,0,0,0,0,0,0,0,0,0,0,0,0,0,0,0,0,0,0,0,0,0,0,0,0,0,0,0,0,0,0,0,0,0,0,0,0,0,0,0,0,0,0,0,0,0,0,0,0,0,0,0,0,0,0,0,0,0,0,0,0,0,0,0],"id":14,"left_children":[1,3,5,7,9,11,13,15,17,19,21,23,25,27,29,31,33,35,37,39,41,43,-1,45,47,49,51,53,55,57,59,61,63,-1,-1,65,67,69,71,73,75,-1,77,79,81,83,85,87,89,91,93,95,97,-1,99,-1,101,103,-1,105,107,-1,-1,-1,-1,-1,-1,-1,-1,-1,-1,-1,-1,-1,-1,-1,-1,-1,-1,-1,-1,-1,-1,-1,-1,-1,-1,-1,-1,-1,-1,-1,-1,-1,-1,-1,-1,-1,-1,-1,-1,-1,-1,-1,-1,-1,-1,-1,-1],"loss_changes":[6.9232376E1,2.9036448E1,2.4418518E1,1.6049725E1,1.6955912E1,1.3824365E1,9.603752E0,5.93671E0,1.2735867E1,7.1597137E0,8.91661E0,1.3576949E1,8.622206E0,6.9983587E0,7.076988E0,3.2789755E0,1.9163895E0,6.9747887E0,1.5583771E1,3.82312E0,3.4513369E0,4.6229587E0,0E0,1.2453533E1,5.985157E0,5.226048E0,3.8510427E0,3.638791E0,1.2871587E0,2.1017265E0,4.554001E0,2.0774286E0,2.6938696E0,0E0,0E0,5.524086E0,3.2499952E0,2.0817108E1,7.040003E0,2.2100487E0,3.2114005E0,0E0,9.64555E-1,1.908798E0,4.504833E0,6.3475876E0,7.096558E0,3.4735727E0,2.0315914E0,1.7216644E0,2.6762972E0,2.9599724E0,1.7094982E0,0E0,1.5952158E-1,0E0,1.650547E-1,5.309254E-2,0E0,2.9163513E0,2.0888584E0,0E0,0E0,0E0,0E0,0E0,0E0,0E0,0E0,0E0,0E0,0E0,0E0,0E0,0E0,0E0,0E0,0E0,0E0,0E0,0E0,0E0,0E0,0E0,0E0,0E0,0E0,0E0,0E0,0E0,0E0,0E0,0E0,0E0,0E0,0E0,0E0,0E0,0E0,0E0,0E0,0E0,0E0,0E0,0E0,0E0,0E0,0E0,0E0],"parents":[2147483647,0,0,1,1,2,2,3,3,4,4,5,5,6,6,7,7,8,8,9,9,10,10,11,11,12,12,13,13,14,14,15,15,16,16,17,17,18,18,19,19,20,20,21,21,23,23,24,24,25,25,26,26,27,27,28,28,29,29,30,30,31,31,32,32,35,35,36,36,37,37,38,38,39,39,40,40,42,42,43,43,44,44,45,45,46,46,47,47,48,48,49,49,50,50,51,51,52,52,54,54,56,56,57,57,59,59,60,60],